tree
version=v4
num_class=4
num_tree_per_iteration=4
label_index=0
max_feature_idx=17
objective=multiclass num_class:4
feature_names=role location usage_frequency violation_count peer_rating complaint_count account_age_days total_interactions admin_flag term time_since_last_access hour_sin hour_cos day_sin day_cos success anomaly_flag sentiment
feature_infos=[-2.2737229999999999:0.48102075] [-1.4578692:1.4616074999999999] [-2.4705892:2.4652259999999999] [-0.76532084:7.8389354000000004] [-4.4284679999999996:1.5872284999999999] [-0.7309601:10.185142000000001] [-1.8138934:1.8100008000000001] [-1.7858240000000001:1.8987769999999999] [-0.23053393999999999:4.3377559999999997] [-1.2236374999999999:1.2145281999999999] [-0.87992459999999995:6.7187409999999996] [-1.3795744999999999:1.2797164999999999] [-0.96858639999999996:3.0075598000000001] [-1.381534:1.3779569] [-1.2751302:1.4113301] [0:1] [0:1] [0:2]
tree_sizes=3334 3340 3361 3315 3422 3390 3419 3367 3427 3400 3451 3376 3429 3402 3435 3380 3442 3401 3434 3392 3441 3418 3440 3408 3436 3429 3437 3395 3434 3412 3432 3411 3424 3429 3435 3399 3430 3433 3452 3420 3444 3412 3441 3400 3438 3451 3435 3408 3418 3424 3439 3417 3444 3425 3445 3415 3449 3422 3438 3384 3412 3400 3428 3403 3415 3424 3448 3399 3405 3432 3430 3410 3415 3431 3445 3409 3434 3419 3432 3385 3447 3427 3448 3404 3439 3432 3447 3386 3414 3429 3424 3401 3433 3414 3441 3414 3430 3436 3428 3409 3438 3424 3431 3388 3435 3409 3434 3412 3427 3436 3427 3430 3448 3428 3432 3414 3429 3427 3438 3414 3416 3428 3423 3415 3441 3447 3427 3437 3444 3424 3417 3391 3432 3430 3432 3434 3423 3418 3436 3396 3430 3405 3415 3436 3421 3396 3428 3421 3398 3402 3429 3432 3417 3411 3425 3426 3431 3422 3427 3394 3426 3409 3431 3426 3428 3410 3430 3429 3413 3416 3418 3426 3421 3395 3426 3418 3442 3406 3416 3420 3427 3411 3427 3426 3439 3406 3428 3409 3424 3420 3420 3417 3427 3413 3431 3409 3420 3428 3429 3430 3443 3432 3422 3393 3418 3411 3410 3423 3420 3434 3432 3416 3406 3423 3435 3406 3416 3420 3417 3417 3425 3423 3428 3425 3402 3430 3427 3409 3401 3448 3412 3428 3400 3436 3424 3414 3423 3419 3434 3433 3413 3420 3436 3430 3416 3444 3438 3423 3433 3451 3411 3430 3401 3434 3422 3393 3421 3436 3430 3429 3398 3421 3420 3407 3408 3444 3426 3419 3433 3429 3429 3418 3386 3448 3426 3404 3423 3411 3411 3431 3427 3395 3420 3426 3426 3388 3424 3424 3401 3418 3420 3416 3429 3413 3394 3421 3425 3408 3434 3447 3430 3428 3444 3403 3428 3433 3430 3425 3403 3443 3426 3430 3421 3430 3432 3407 3416 3415 3438 3449 3419 3410 3426 3415 3428 3443 3422 3458 3416 3385 3429 3431 3425 3416 3425 3430 3423 3416 3424 3418 3424 3422 3439 3417 3443 3440 3433 3421 3413 3424 3413 3409 3409 3437 3422 3393 3402 3422 3451 3397 3422 3417 3430 3425 3421 3443 3431 3426 3423 3430 3447 3431 3422 3462 3428 3433 3434 3438 3439 3442 3437 3459 3431 3417 3411 3444 3438 3425 3441 3418 3444 3442 3447 3448 3435 3446 3435 3444 3444 3427

Tree=0
num_leaves=31
num_cat=0
split_feature=7 7 7 7 7 7 7 7 7 7 7 7 7 7 7 7 7 10 10 4 7 6 7 3 4 4 2 2 2 15
split_gain=19068.1 29301 3141.58 1271.81 751.53 324.342 204.261 129.628 93.5313 59.9248 48.1788 43.648 36.862 36.4279 29.1965 18.6158 11.0262 10.9947 8.86841 8.34679 8.25354 8.1999 8.12878 7.84293 7.57617 7.38964 7.36199 6.99645 9.73679 6.91252
threshold=-0.10556134799999999 0.8878014500000001 0.056476553000000006 0.74689893000000007 0.97938808500000019 0.14806319000000004 -0.01397471 0.83144045000000011 -0.15487722999999998 1.0216588500000003 0.93711733000000008 0.09874730800000002 -0.056245467499999993 0.71871841500000011 0.014205795500000002 0.77507942500000004 0.85962092500000009 -0.87603691999999989 -0.11964034 0.7969764250000001 0.16919857000000002 1.5871962000000002 -0.12669673499999998 1.6247503500000002 0.010561702000000001 -1.2720469999999997 -0.62846359999999979 0.50395520000000016 0.94401913000000015 1.0000000180025095e-35
decision_type=2 2 2 2 2 2 2 2 2 2 2 2 2 2 2 2 2 2 2 2 2 2 2 2 2 2 2 2 2 2
left_child=8 2 6 5 10 11 12 15 -1 -6 27 -4 -2 20 25 -5 23 19 21 24 -7 -14 -10 -9 -18 -8 -12 -3 -29 -17
right_child=1 4 3 7 9 13 14 16 22 -11 26 -13 18 -15 -16 29 17 -19 -20 -21 -22 -23 -24 -25 -26 -27 -28 28 -30 -31
leaf_value=-1.4349001460197854 -1.3794949264568042 -1.3663014510368905 -1.295353979821082 -1.2814435437908491 -1.4116326404580093 -1.2522347682214146 -1.3124367043133682 -1.3261515265490211 -1.4143632122506158 -1.4350990588123342 -1.3766828096316357 -1.2684911403901948 -1.3505305845577793 -1.2630196429899498 -1.3152839272740962 -1.2905267585260034 -1.3193229057509601 -1.3452526919867172 -1.3667407464167773 -1.3642443815119309 -1.2401527696230725 -1.2922469477580463 -1.3981996929777787 -1.2879712378887 -1.2604905039137402 -1.343869741123654 -1.3945565541028415 -1.3312455576261204 -1.3632830423399567 -1.3048480816281396
leaf_weight=10695.631206095219 344.51227894425392 218.75779691338539 280.00998005270958 184.75658491253853 288.51028287410736 147.0052393078804 21.000748515129089 185.7566205561161 178.25635319948196 4769.1699796617031 79.752842545509338 328.76171749830246 175.00623738765717 190.50678998231888 291.01037207245827 119.75426828861237 16.250579208135612 163.75583645701408 105.75376921892166 6.2502227723598471 3675.8810134828091 6.2502227723598471 138.00491863489151 14.500516802072523 8.2502940595149976 170.50607705116272 207.50739571452141 40.001425683498383 58.252076119184494 284.26013135910034
leaf_count=42051 1360 867 1110 723 1134 568 84 727 695 18770 317 1293 684 754 1150 477 65 643 417 25 14475 25 540 56 33 670 808 156 225 1115
internal_value=-1.38624 -1.34367 -1.27307 -1.25783 -1.42746 -1.24684 -1.34975 -1.30945 -1.43411 -1.43376 -1.37476 -1.28085 -1.36847 -1.24168 -1.32526 -1.29459 -1.33162 -1.3401 -1.35523 -1.31267 -1.24062 -1.34852 -1.40731 -1.32339 -1.29951 -1.34042 -1.38959 -1.36132 -1.35024 -1.3006
internal_weight=0 12381.7 6719.74 5605.7 5661.95 4622.16 1114.04 983.535 11011.9 5057.68 604.272 608.772 631.523 4013.39 482.517 588.771 394.764 194.507 287.01 30.7511 3822.89 181.256 316.261 200.257 24.5009 191.507 287.26 317.011 98.2535 404.014
internal_count=92017 48731 26454 22064 22277 18200 4390 3864 43286 19904 2373 2403 2486 15797 1904 2315 1549 766 1126 123 15043 709 1235 783 98 754 1125 1248 381 1592
is_linear=0
shrinkage=1


Tree=1
num_leaves=31
num_cat=0
split_feature=7 7 7 7 7 7 7 7 7 13 6 6 10 12 1 10 4 7 6 4 6 0 6 12 10 3 11 9 2 1
split_gain=57708.6 1242.18 1190.59 91.9059 74.489 54.7011 52.374 18.579 9.87545 9.69677 7.8123 7.63446 9.65422 12.6539 8.37221 6.88913 8.207 6.83519 6.17975 5.75493 5.86376 5.75919 5.67638 7.06474 9.56161 11.2833 5.48299 6.31615 5.14516 5.92174
threshold=-0.85938983499999988 -0.76075809999999988 -0.97211187999999982 -0.70439707999999979 -0.92984109999999986 -0.81711909499999991 -1.0284728499999998 -0.88757034999999995 -0.98620212499999982 1.0000000180025095e-35 -1.3136897999999999 -0.57002419999999987 -0.87206223499999991 2.3294651000000006 1.1696598150000002 0.16601805000000003 0.83529995000000012 -0.73257759499999986 1.5990004000000002 -1.3665755999999998 1.1150276000000001 1.0000000180025095e-35 1.6226088500000004 0.97327569000000014 0.2761565700000001 1.0000000180025095e-35 -1.0754078499999997 1.0000000180025095e-35 -0.6166893699999999 0.58576446500000012
decision_type=2 2 2 2 2 2 2 2 2 2 2 2 2 2 2 2 2 2 2 2 2 2 2 2 2 2 2 2 2 2
left_child=2 5 6 17 9 15 -1 10 -8 19 -6 -7 14 18 -13 16 -2 -3 -14 -4 -21 -22 23 -9 25 -25 27 -18 -17 -30
right_child=1 3 4 -5 7 11 8 22 -10 -11 -12 12 13 -15 -16 28 26 -19 -20 20 21 -23 -24 24 -26 -27 -28 -29 29 -31
leaf_value=-1.2410725241879517 -1.3394744509654477 -1.4052929950025841 -1.2657856733414727 -1.4359828838781823 -1.2917780428953258 -1.3884458479879223 -1.2555289237162688 -1.3273036014605561 -1.2738611648739366 -1.2779635794951132 -1.3159318047659381 -1.3621049151535978 -1.3831474106473094 -1.3292590396496817 -1.3039078150981618 -1.3414342988092935 -1.3099727013545062 -1.4183585827066045 -1.3401238501717618 -1.3036487326711284 -1.3205862523031091 -1.2647134876665351 -1.3827513365662014 -1.4116761786527539 -1.3082119279252449 -1.3345600787142462 -1.3755030577825271 -1.3801520996056518 -1.3794910219052474 -1.3486129045749762
leaf_weight=4679.6951179504395 158.38814353942871 202.85673904418945 13.990119934082029 16451.881395339966 38.472829818725586 130.90755081176758 291.79393005371094 163.13479137420654 98.180663108825684 121.41425514221191 257.81792449951172 35.225123405456543 183.62032413482666 12.49117851257324 7.4947071075439444 23.983062744140625 8.2441778182983381 197.61044406890869 8.7438249588012678 128.65913867950439 5.9957656860351589 19.985885620117188 5.4961185455322257 9.7431192398071342 7.7445306777954093 9.2434720993041974 30.728299140930176 5.2462949752807608 43.219477653503418 24.23288631439209
leaf_count=18430 622 800 54 64758 150 512 1146 643 391 484 1022 139 729 50 30 96 33 771 35 497 24 80 20 37 31 35 119 19 167 93
internal_value=-1.38735 -1.43275 -1.2514 -1.43541 -1.30883 -1.36611 -1.24254 -1.32069 -1.26014 -1.28874 -1.3128 -1.37868 -1.37352 -1.37803 -1.35189 -1.34993 -1.34479 -1.41174 -1.38119 -1.2965 -1.29927 -1.27761 -1.33266 -1.33121 -1.35503 -1.37413 -1.36384 -1.33726 -1.36133 -1.3684
internal_weight=0 17524.9 5851.37 16852.3 781.698 672.525 5069.67 491.653 389.975 290.045 296.291 378.483 247.575 204.855 42.7198 294.042 202.607 400.467 192.364 168.631 154.641 25.9817 195.362 189.866 26.7311 18.9866 44.2188 13.4905 91.4354 67.4524
internal_count=92017 68973 23044 66329 3077 2644 19967 1938 1537 1139 1172 1495 983 814 169 1149 793 1571 764 655 601 104 766 746 103 72 171 52 356 260
is_linear=0
shrinkage=1


Tree=2
num_leaves=31
num_cat=0
split_feature=7 7 7 7 7 7 7 7 7 7 7 7 7 7 7 7 7 2 12 10 3 7 10 7 10 6 6 2 4 6
split_gain=18894.6 29075.3 2850.28 1474.01 747.85 249.571 244.831 121.8 102.096 86.5646 53.3225 25.8424 23.9194 22.7865 21.0414 11.981 9.1045 8.88123 7.84298 10.1891 12.5027 7.59745 7.51747 7.88697 6.99981 6.968 6.69184 6.59104 6.53348 6.38248
threshold=0.09874730800000002 -0.88757034999999995 -0.070335717999999978 -0.76075809999999988 -0.98620212499999982 -0.12669673499999998 0.014205795500000002 -0.81711909499999991 0.14806319000000004 -0.70439707999999979 -0.92984109999999986 0.042386301000000008 -0.15487722999999998 -0.035110087999999991 -1.0284728499999998 -0.85938983499999988 -0.95802161499999994 0.38782270000000002 0.97327569000000014 0.2761565700000001 1.0000000180025095e-35 0.16919857000000002 0.85087833000000013 -0.7184873249999999 0.43584956000000002 -0.6438005349999999 -1.3136897999999999 -0.75724594999999983 0.59045420000000004 0.17954350000000002
decision_type=2 2 2 2 2 2 2 2 2 2 2 2 2 2 2 2 2 2 2 2 2 2 2 2 2 2 2 2 2 2
left_child=1 4 3 7 14 9 13 15 -2 22 16 -8 -11 -4 -1 18 -6 -7 -3 20 -20 -10 23 -5 28 -15 -12 -24 -17 -14
right_child=8 2 6 5 10 17 11 -9 21 12 26 -13 29 25 -16 24 -18 -19 19 -21 -22 -23 27 -25 -26 -27 -28 -29 -30 -31
leaf_value=-1.428878140840506 -1.4004101560896551 -1.343106978608875 -1.3049835937070045 -1.2623413167448785 -1.3923971094040706 -1.2751298133729796 -1.3478649659030995 -1.2918073187878236 -1.4173774263645076 -1.2358262536866431 -1.3759270178553173 -1.3703636936034798 -1.2459153243745624 -1.3144564543607631 -1.4150723173881468 -1.3330405781556787 -1.3771174042139713 -1.2909301044329122 -1.2559641155397696 -1.361780449235235 -1.3358996740727722 -1.4288002336715202 -1.3020082895774892 -1.244507998884959 -1.3096368825206002 -1.3300056498807977 -1.3536258845449947 -1.2665962178618537 -1.3142501466164673 -1.2648782004218686
leaf_weight=4702.192316442728 330.0973145365715 168.68851357698441 241.48563995957375 255.79404070973396 191.53174990415573 250.77354928851128 191.7827744781971 380.30222937464714 147.60244923830032 3781.4341793060303 38.657784342765808 381.5573522746563 97.648559182882309 104.92827188968658 293.19670215249062 157.39240765571594 198.56043779850006 137.81249096989632 10.040982931852346 8.0327863693237287 9.5389337837696058 10554.579230070114 18.324793815612793 81.834011077880859 72.546101838350296 229.93850955367088 259.0573602616787 46.43954610824585 65.517413735389709 81.331961840391159
leaf_count=18430 1293 660 944 1003 757 987 758 1495 568 14792 150 1502 381 414 1146 609 773 537 38 32 36 41370 67 322 285 898 1022 179 255 314
internal_value=-1.38015 -1.33794 -1.26797 -1.2533 -1.42134 -1.24234 -1.3397 -1.31306 -1.4278 -1.23892 -1.37246 -1.36284 -1.23667 -1.31669 -1.42807 -1.32949 -1.38462 -1.28073 -1.33906 -1.31436 -1.29491 -1.42864 -1.26101 -1.25802 -1.32313 -1.32513 -1.35652 -1.27662 -1.32752 -1.25453
internal_weight=0 12456.3 6773.15 5623.45 5683.2 4751.39 1149.69 872.059 11032.3 4362.81 687.807 573.34 3960.41 576.352 4995.39 491.757 390.092 388.586 196.301 27.6127 19.5799 10702.2 402.392 337.628 295.456 334.867 297.715 64.7643 222.91 178.981
internal_count=92017 48786 26508 21992 22278 18582 4516 3410 43231 17058 2702 2260 15487 2256 19576 1915 1530 1524 766 106 74 41938 1571 1325 1149 1312 1172 246 864 695
is_linear=0
shrinkage=1


Tree=3
num_leaves=31
num_cat=0
split_feature=7 7 7 7 7 7 7 7 6 7 2 2 13 10 10 10 6 14 4 10 10 4 10 2 10 4 2 5 6 10
split_gain=57802.4 1425.82 1011.29 88.3688 65.187 61.4823 42.9669 22.4236 12.9436 10.7329 8.46795 13.8597 9.62082 6.44149 6.25388 6.5611 10.231 10.2044 6.59069 9.76617 7.28111 6.05195 5.91544 6.13788 7.15326 6.50099 6.20568 5.67036 5.63122 8.92254
threshold=0.87371119500000016 0.74689893000000007 0.97938808500000019 0.83144045000000011 1.0216588500000003 0.91598195000000004 0.71871841500000011 0.77507942500000004 1.5399793500000001 0.93711733000000008 0.50395520000000016 1.0605552000000003 -0.30881080534999999 1.0669978000000002 2.2829196500000006 -0.87603691999999989 1.2891397500000001 1.0000000180025095e-35 -0.54355127999999986 -0.29509939999999996 -0.7966707999999999 -1.2279733999999998 -0.54169007999999985 1.2059636000000002 0.031278770500000004 0.44719517000000003 -1.6360069499999998 1.9980654 -0.27196773999999996 -0.10427046699999999
decision_type=2 2 2 2 2 2 2 2 2 2 2 2 2 2 2 2 2 2 2 2 2 2 2 2 2 2 2 2 2 2
left_child=1 6 5 7 -4 8 -1 -3 22 10 13 12 -12 -7 15 16 -5 18 19 21 -20 -17 -2 26 -25 -26 -24 -9 -22 -30
right_child=2 3 4 14 -6 9 -8 27 -10 -11 11 -13 -14 -15 -16 17 -18 -19 20 -21 28 -23 23 24 25 -27 -28 -29 29 -31
leaf_value=-1.4400230834984811 -1.3341957121372692 -1.4001046128721788 -1.2690386644170919 -1.3576592615971457 -1.2445208231817741 -1.306708535104927 -1.4160996174913287 -1.3777400000767062 -1.3733523769471268 -1.2922180673058048 -1.3119047305732763 -1.2959544227920761 -1.3819192844433903 -1.2682373135612155 -1.3925666288582041 -1.3636963181922321 -1.4213144597961955 -1.3348623476686434 -1.3034076732295412 -1.347727245318151 -1.3685296084751655 -1.4204782410765562 -1.3539023961745449 -1.3805678204635563 -1.2938157569563615 -1.3611067388112843 -1.3125021380870057 -1.4061269262922214 -1.3614330679202655 -1.3213617722045992
leaf_weight=16499.876741543412 109.62048929929733 184.11259447038174 287.50464695692062 40.609408378601074 4752.5464869886637 75.737792730331421 189.84275659918785 384.16998758912086 14.699111044406889 286.25895948708057 7.7232617586851147 17.19048584997654 13.453423574566839 12.706011280417441 9.2180866152048093 7.7232617586851147 7.474124237895011 97.163615539669991 7.9723992347717276 18.685310661792755 36.374071508646011 11.958598852157591 9.7163615673780424 8.2215366214513796 8.4706741869449598 6.228436902165412 132.29199966788292 18.436173230409622 30.643909558653828 25.412022471427921
leaf_count=65122 432 723 1134 153 18770 304 754 1518 57 1125 31 69 48 51 37 31 28 384 32 73 146 48 39 29 34 25 525 74 123 98
internal_value=-1.39147 -1.43648 -1.25375 -1.37445 -1.24592 -1.30996 -1.43975 -1.38565 -1.32764 -1.29758 -1.30969 -1.32931 -1.35638 -1.30118 -1.35204 -1.35072 -1.36755 -1.34729 -1.35599 -1.37362 -1.34925 -1.3982 -1.32519 -1.31921 -1.34322 -1.32233 -1.31533 -1.37904 -1.35321 -1.34327
internal_weight=0 17569.7 5742.37 879.954 5040.05 702.319 16689.7 586.719 289.249 413.07 126.811 38.3672 21.1767 88.4438 293.235 284.017 48.0835 235.933 138.77 38.3672 100.402 19.6819 274.549 164.929 22.9206 14.6991 142.008 402.606 92.43 56.0559
internal_count=92017 69344 22673 3468 19904 2769 65876 2315 1141 1628 503 148 79 355 1153 1116 181 935 551 152 399 79 1084 652 88 59 564 1592 367 221
is_linear=0
shrinkage=1


Tree=4
num_leaves=31
num_cat=0
split_feature=7 7 7 7 7 7 7 7 7 7 7 7 7 7 7 7 7 7 7 7 13 2 13 2 6 13 4 10 10 2
split_gain=17257 24573.1 2306.75 1101.39 517.568 300.706 123.939 92.7577 91.6452 90.8552 40.1259 34.3166 27.4421 21.6681 14.5145 12.9315 9.74739 9.38157 7.74706 7.55339 7.45137 11.8005 10.2556 6.83723 6.72598 7.03325 7.38303 9.4113 6.47756 8.1072
threshold=-0.10556134799999999 0.90189171500000009 0.042386301000000008 0.77507942500000004 0.99347835000000007 0.11988269000000001 -0.035110087999999991 0.84553068000000009 -0.15487722999999998 0.73280865000000006 0.93711733000000008 1.0357491500000002 0.16919857000000002 0.014205795500000002 -0.070335717999999978 0.09874730800000002 0.97938808500000019 0.87371119500000016 0.67644765000000018 -0.12669673499999998 1.2413191500000003 -0.072081009999999987 0.85846866500000008 -0.62846359999999979 -0.6438005349999999 -0.86204576999999993 -1.2720469999999997 -0.28229160999999997 -0.36959197999999999 0.86872218500000009
decision_type=2 2 2 2 2 2 2 2 2 2 2 2 2 2 2 2 2 2 2 2 2 2 2 2 2 2 2 2 2 2
left_child=8 2 6 5 10 15 14 -5 -1 12 -3 -6 -7 24 -2 -4 23 20 -14 -10 22 -22 -9 -12 -8 28 27 -27 -26 -30
right_child=1 4 3 7 11 9 13 17 19 -11 16 -13 18 -15 -16 -17 -18 -19 -20 -21 21 -23 -24 -25 25 26 -28 -29 29 -31
leaf_value=-0.047782029997030177 0.003280695330096148 0.018906612871633789 0.079417243084063491 0.074356198182808253 -0.030358504365582357 0.11199984226205817 0.028372119153125611 0.051312849949320186 -0.027150441609696013 0.09685671869765114 0.0092756969165273193 -0.048218004819440434 0.12692982006459483 0.059494105156209655 0.020437998862236309 0.096932472650006513 -0.021222315772346709 0.035097435131045816 0.1197430408178351 -0.011462828762431361 0.035666732246383955 0.098317667168186268 0.0174486904074031 -0.0079419797159163454 0.076429928641482486 0.10167606141300306 0.034408434919703024 0.033787413252081865 0.032363263456670788 0.090819806478333875
leaf_weight=10325.815983831882 249.42204567790031 220.05762130022049 401.35185241699219 526.71743357181549 286.07441079616547 370.74807074666023 106.98084166646004 147.65363419055939 174.54759028553963 305.65847796201706 80.019493222236633 4498.8990040421486 3702.3068232536316 199.64699605107307 243.71030968427658 142.90044543147087 100.61037561297417 205.37361720204353 417.23935973644257 136.92010599374771 12.697625488042833 18.417908042669296 26.34682422876358 206.34582161903381 26.736604750156403 9.8301625549793261 151.0421826839447 10.620355397462843 29.502621918916702 7.4236896634101859
leaf_count=42051 984 853 1502 1971 1155 1338 414 556 695 1118 317 18345 13326 758 944 523 404 791 1508 540 49 71 98 808 102 38 575 41 113 29
internal_value=0 0.0393471 0.0990604 0.110463 -0.0416327 0.119237 0.0298964 0.0604698 -0.046976 0.123234 0.00185954 -0.0471503 0.125029 0.0464042 0.01176 0.0840161 -0.00783445 0.0426516 0.126202 -0.0202542 0.0502152 0.0727511 0.0461852 -0.00313082 0.0387659 0.0434944 0.0382258 0.0664202 0.0576866 0.0441154
internal_weight=0 12704.3 7312.33 6277.41 5392.01 5340.21 1034.92 937.207 10637.3 4795.95 607.033 4784.97 4490.29 541.783 493.132 544.252 386.976 410.49 4119.55 311.468 205.116 31.1155 174 286.365 342.136 235.156 171.493 20.4505 63.6629 36.9263
internal_count=92017 48731 26849 22851 21882 19315 3998 3536 43286 17290 2382 19500 16172 2070 1928 2025 1529 1565 14834 1235 774 120 654 1125 1312 898 654 79 244 142
is_linear=0
shrinkage=0.05


Tree=5
num_leaves=31
num_cat=0
split_feature=7 7 7 7 7 7 7 7 7 7 13 6 10 12 1 13 4 4 6 6 3 6 4 13 17 4 6 10 12 10
split_gain=49196.5 1303 683.159 80.1441 61.7609 48.9006 26.3806 12.7147 11.5657 9.03315 7.18334 6.99076 8.67696 11.29 7.21364 6.43978 6.061 10.4649 7.07799 6.03113 5.60723 5.55776 5.00196 4.96872 6.73211 4.79661 6.28925 4.66257 4.48844 4.44049
threshold=-0.83120936999999984 -0.95802161499999994 -0.73257759499999986 -0.88757034999999995 -1.0143826499999997 -0.76075809999999988 -0.69030681499999991 -0.92984109999999986 -0.81711909499999991 -0.98620212499999982 1.0000000180025095e-35 -0.57002419999999987 -0.87206223499999991 2.3294651000000006 1.1696598150000002 1.2413191500000003 0.68508795000000011 1.5666968500000003 -0.34574408999999995 -1.3136897999999999 0.66872187500000013 1.5990004000000002 0.80986297500000004 0.85846866500000008 1.0000000180025095e-35 -0.21743140499999999 -1.3284449999999997 -0.35130819499999993 -0.48209483499999994 2.1908951000000005
decision_type=2 2 2 2 2 2 2 2 2 2 2 2 2 2 2 2 2 2 2 2 2 2 2 2 2 2 2 2 2 2
left_child=1 4 5 7 -1 8 -4 10 15 -6 20 -10 14 21 -13 23 25 -18 -19 -9 22 -14 -3 -2 -25 26 -5 -17 -24 -21
right_child=2 3 6 16 9 -7 -8 19 11 -11 -12 12 13 -15 -16 27 17 18 -20 29 -22 -23 28 24 -26 -27 -28 -29 -30 -31
leaf_value=0.12647717078182288 0.027892551764402185 0.077380452507096409 -0.032573417483857066 0.067276094579919954 0.11370128870031655 -0.017157257314207915 -0.047816585199407964 0.085406038930648645 -0.0010736721263564005 0.098887363368305239 0.094566194467132325 0.023964831858580556 0.004016539676928779 0.054280627652975838 0.077028032349376691 0.093449100407219488 0.025975446636400962 0.094779441017363672 0.039113647987018579 0.063454682876683627 0.098013145089110409 0.044360605042110812 0.02519390575222831 0.032021660266353912 -0.037208683844676342 0.055506093752285268 0.03889941376158966 0.031155054750778371 0.067625405528108432 0.095554585303329748
leaf_weight=5230.543881714344 73.897993087768555 74.422828316688538 289.03660500049591 22.437390938401222 207.72733008861542 200.07081854343414 15787.926024898887 40.855989813804626 130.87344455718994 203.93002870678902 85.706556677818298 35.678848087787628 184.05918502807617 12.855036556720732 7.8061294555664054 5.8979206383228302 84.816028475761414 10.303265452384951 12.810692772269247 258.56776478886604 23.054743468761444 8.9516891539096815 9.7749716639518756 6.6551620066165906 7.434085488319397 122.73158703744411 150.48934315145016 6.121462404727934 17.19733864068985 11.242076754570006
leaf_count=18820 279 273 1166 87 756 800 64363 150 512 757 319 139 729 50 30 23 331 40 48 981 83 35 35 24 29 468 562 24 63 41
internal_value=0 0.115994 -0.0454658 0.0609688 0.12501 0.00361146 -0.0475425 0.0739286 0.012264 0.106363 0.083427 0.00828452 0.0131962 0.0089095 0.0334904 0.0273939 0.0442445 0.0341031 0.0639272 0.0675031 0.0757557 0.00588766 0.0706949 0.0227044 -0.00450721 0.0479466 0.0425813 0.0617228 0.0522479 0.0647922
internal_weight=0 6566.61 16757.3 924.411 5642.2 680.302 16077 520.822 480.231 411.657 210.156 380.224 249.351 205.866 43.485 100.007 403.588 107.93 23.114 310.666 124.45 193.011 101.395 87.9872 14.0892 295.658 172.927 12.0194 26.9723 269.81
internal_count=92017 23814 68203 3481 20333 2674 65529 1945 1874 1513 773 1495 983 814 169 379 1536 419 88 1172 454 764 371 332 53 1117 649 47 98 1022
is_linear=0
shrinkage=0.05


Tree=6
num_leaves=31
num_cat=0
split_feature=7 7 7 7 7 7 7 7 7 7 7 7 7 7 7 10 7 7 7 2 7 6 2 2 13 12 10 3 10 7
split_gain=17095.7 24357 2152.49 1047.63 714.399 251.559 162.63 100.085 96.0894 60.8712 47.1922 20.8376 16.56 16.066 9.73275 9.17455 9.00309 8.39317 8.37568 8.36437 7.54831 7.06242 6.5021 6.47333 8.21801 6.43367 8.27035 9.03532 5.81445 5.82297
threshold=0.09874730800000002 -0.88757034999999995 -0.056245467499999993 -0.76075809999999988 -0.98620212499999982 -0.12669673499999998 0.028296047000000001 0.14806319000000004 -0.81711909499999991 -0.70439707999999979 -0.92984109999999986 -1.0284728499999998 -0.15487722999999998 -0.006929583799999999 -0.85938983499999988 0.067302670000000009 -0.10556134799999999 -0.95802161499999994 0.056476553000000006 0.30474393000000005 0.16919857000000002 1.5635877000000002 0.8402016000000001 1.1323327500000002 0.85846866500000008 0.97327569000000014 0.34986140000000004 1.0000000180025095e-35 0.85087833000000013 -0.7184873249999999
decision_type=2 2 2 2 2 2 2 2 2 2 2 2 2 2 2 2 2 2 2 2 2 2 2 2 2 2 2 2 2 2
left_child=1 4 3 8 11 9 13 -2 14 28 17 -1 -11 15 25 21 -7 -6 -8 -18 -9 23 -17 -4 -25 -3 27 -27 29 -5
right_child=7 2 6 5 10 16 18 20 -10 12 -12 -13 -14 -15 -16 22 19 -19 -20 -21 -22 -23 -24 24 -26 26 -28 -29 -30 -31
leaf_value=-0.047836134678293958 -0.01942739698718508 0.03437017928195852 0.051111430969801669 0.1037567971158653 -0.011679378632605323 0.096295227207797054 0.020207627532590047 -0.036221793933479712 0.079267592154898314 0.12514596254564953 0.022189992161485695 -0.033917506504297333 0.11017822021418409 0.041469174653615902 0.052163613110126218 0.075980763721679515 0.087844436313404287 0.0030250862942845709 0.0067697167905815692 0.072427444461775417 -0.047763420123032911 0.013289081439477169 0.0464663500698329 0.055538487917038519 0.1074202580281598 0.10637343776294113 0.015232756361009249 0.040855086557648142 0.091546755514362838 0.11847711673950445
leaf_weight=4538.5827907621861 325.09731045365334 172.73564833402634 198.88846173882484 275.30207023024559 189.80277547240257 147.73616677522659 196.69982692599297 143.65983009338379 402.0880146920681 4131.9408555030823 302.04766857624054 285.83723790943623 193.44574582576752 243.70467042922974 306.49166443943977 90.001302391290665 219.83888360857964 198.57033376395702 282.48530387878418 146.67706117033958 10190.69332100451 10.891414999961851 23.541641503572464 20.137598007917404 12.291483402252195 11.346435219049459 7.617971569299697 9.8130186796188337 69.287496864795685 88.867802381515503
leaf_count=18430 1293 660 741 1003 757 540 761 568 1495 14792 1172 1146 695 934 1149 340 817 773 1110 543 41370 40 90 77 47 40 30 36 246 322
internal_value=0 0.0390153 0.0991765 0.110546 -0.0402037 0.119096 0.0340008 -0.0467437 0.061006 0.122686 0.00736703 -0.0470115 0.124477 0.051359 0.0465519 0.0581339 0.0858749 -0.00416117 0.0122858 0.0816747 -0.047603 0.0526363 0.0698613 0.0544889 0.0752031 0.0380167 0.0599051 0.0759883 0.104823 0.107349
internal_weight=0 12776.7 7261.83 6183.19 5514.84 5273.1 1078.64 10659.5 910.093 4758.84 690.421 4824.42 4325.39 599.457 508.005 355.752 514.252 388.373 479.185 366.516 10334.4 242.209 113.543 231.318 32.4291 201.513 28.7774 21.1595 433.457 364.17
internal_count=92017 48786 26508 22368 22278 18958 4140 43231 3410 17058 2702 19576 15487 2269 1915 1335 1900 1530 1871 1360 41938 905 430 865 124 766 106 76 1571 1325
is_linear=0
shrinkage=0.05


Tree=7
num_leaves=31
num_cat=0
split_feature=7 7 7 7 7 7 7 7 6 7 7 2 2 13 10 10 3 2 2 2 6 6 4 6 4 5 6 2 11 6
split_gain=49231.3 1149.16 835.864 102.095 45.4193 42.3489 29.1588 15.5163 11.0385 9.21109 7.76939 6.68577 11.3164 8.31436 6.36806 7.0422 5.7689 5.37292 6.32961 8.83394 6.16074 9.95166 5.41518 5.3279 5.1739 5.16489 5.25364 20.5528 5.38612 5.37746
threshold=0.84553068000000009 0.97938808500000019 0.74689893000000007 0.91598195000000004 1.0216588500000003 0.71871841500000011 0.77507942500000004 0.87371119500000016 1.5399793500000001 0.83144045000000011 0.93711733000000008 0.50395520000000016 1.0605552000000003 -0.30881080534999999 1.5057119500000002 0.87571797500000004 1.0000000180025095e-35 1.9804027500000003 0.24127052000000002 0.39823675000000008 0.20610298000000002 0.76090113500000012 1.0697642500000002 -1.5645293499999997 0.20655542500000004 1.9980654 -1.4464871999999998 0.39823675000000008 0.90566505000000008 0.32414515500000002
decision_type=2 2 2 2 2 2 2 2 2 2 2 2 2 2 2 2 2 2 2 2 2 2 2 2 2 2 2 2 2 2
left_child=2 3 5 7 -3 -1 23 14 -9 25 11 -5 13 -13 15 17 -17 18 22 -20 -21 -22 -2 -4 -16 26 27 28 -8 -28
right_child=1 4 6 10 -6 -7 9 8 -10 -11 -12 12 -14 -15 24 16 -18 -19 19 20 21 -23 -24 -25 -26 -27 29 -29 -30 -31
leaf_value=-0.047685127596598265 0.040948984687155549 0.10746570556363322 0.027980797457724513 0.081191554145484998 0.12715098162846974 -0.023710119543583961 0.077156279592535348 0.060327473322438242 0.016309268596002315 0.028869365282390359 0.088344974319320119 0.072524041748719778 0.085815791210903117 0.0085174100865279458 0.038409864451855499 0.032561980770571583 0.096097702352483688 0.089077322845980661 -0.018652208340056386 0.017516656577732315 0.093758281040669703 0.029432580793541316 0.072146236538030983 -0.010193704102440151 -0.018855000179198264 -0.01416386243440587 0.0056367880866646427 -0.018871501422471459 0.023632046790349068 0.01805970761683352
leaf_weight=15929.284085616469 83.575658455491066 310.49945390224457 9.6492979526519758 93.493759721517563 5205.0652373731136 186.34396967291832 15.321288406848909 286.41685330867767 14.987750694155691 98.227679789066315 304.95809891819954 8.085938513278963 18.207075297832489 13.619151145219801 7.8787821531295759 5.4011782407760611 10.553498029708861 5.3694323301315299 9.4221245497465116 28.63262452185154 8.9969525039196032 18.126734092831612 16.687078088521957 173.19252768158913 7.89885613322258 18.284545853734016 194.61979225277901 12.805178284645079 6.7801682054996482 157.6924669444561
leaf_count=65122 319 1134 37 355 18770 754 57 1084 57 379 1125 31 69 48 31 21 39 21 37 108 33 71 65 686 29 74 771 49 25 616
internal_value=0 0.117325 -0.0451061 0.0662962 0.126043 -0.0474079 0.00892394 0.0509465 0.0581386 0.0151319 0.0839423 0.0738782 0.0567466 0.0323622 0.040244 0.0428208 0.0745888 0.0398535 0.0382559 0.0261261 0.0336931 0.0507695 0.0461413 -0.00817908 0.009741 0.0118042 0.0130304 0.031533 0.0607364 0.0111972
internal_weight=0 6457.88 16802.2 942.312 5515.56 16115.6 686.573 503.948 301.405 503.731 438.364 133.406 39.9122 21.7051 202.543 186.765 15.9547 170.811 165.441 65.1784 55.7563 27.1237 100.263 182.842 15.7776 405.503 387.219 34.9066 22.1015 352.312
internal_count=92017 23447 68570 3543 19904 65876 2694 1915 1141 1971 1628 503 148 79 774 714 60 654 633 249 212 104 384 723 60 1592 1518 131 82 1387
is_linear=0
shrinkage=0.05


Tree=8
num_leaves=31
num_cat=0
split_feature=7 7 7 7 7 7 7 7 7 7 7 7 7 7 7 7 7 7 7 2 13 2 13 6 9 0 6 6 4 6
split_gain=15667.9 20911.2 1810.01 845.416 499.705 228.696 105.44 90.3411 74.6151 69.1155 47.7808 20.549 17.8199 15.7938 15.6445 12.7654 9.81273 7.69701 7.09791 6.35301 6.28651 9.75629 8.95561 6.27684 6.05203 6.00917 6.56115 9.00242 8.03324 6.37703
threshold=-0.10556134799999999 0.90189171500000009 0.042386301000000008 0.77507942500000004 1.0075686000000001 0.11988269000000001 -0.035110087999999991 -0.15487722999999998 0.84553068000000009 0.73280865000000006 0.93711733000000008 0.16919857000000002 0.014205795500000002 1.0357491500000002 0.97938808500000019 -0.070335717999999978 0.09874730800000002 0.87371119500000016 -0.12669673499999998 -0.62846359999999979 1.2413191500000003 -0.072081009999999987 0.85846866500000008 -0.13621926499999998 -0.61409607049999981 1.0000000180025095e-35 0.96452383000000008 -1.4464871999999998 0.10332394300000002 -0.78840214999999991
decision_type=2 2 2 2 2 2 2 2 2 2 2 2 2 2 2 2 2 2 2 2 2 2 2 2 2 2 2 2 2 2
left_child=7 2 6 5 10 16 15 -1 -5 11 -3 -7 -8 -6 19 24 -4 20 -9 -12 22 -22 -10 -21 25 -2 27 -27 -28 -29
right_child=1 4 3 8 13 9 12 18 17 -11 14 -13 -14 -15 -16 -17 -18 -19 -20 23 21 -23 -24 -25 -26 26 28 29 -30 -31
leaf_value=-0.046955210503243722 -0.014082747781269847 0.017806149179746086 0.071919099741125703 0.067504744653589327 -0.032609476818982956 0.099766162393607999 0.036021803056989814 -0.0261697922350453 0.047293526024472857 0.08680733531182723 0.0090578852555096689 0.11168069462746993 0.054531334843336679 -0.047394443445598962 -0.021402566536160784 0.019268726634875503 0.086777288243127415 0.032753119440185739 -0.010847197467025727 -0.01676156089012874 0.033004127987789504 0.088982868107861574 0.01593061211307736 0.00075737287489464824 -0.002276284430707516 0.07129456809866741 0.085109858013721965 -0.021107694366593325 0.011953973154922769 0.018016953197562323
leaf_weight=9951.5354190170765 15.286918163299559 222.58796790242195 420.36433470249176 550.28894707560539 188.48622585833073 394.27264526486397 350.22048220038414 170.7892539203167 152.24990597367287 322.98849043250084 80.225537180900574 4406.2883750796318 206.82484394311905 4332.8475806117058 189.56102330982685 246.65289875864983 151.05135032534599 209.67470082640648 135.57711839675903 97.109712660312653 12.993425041437147 19.412243783473969 26.762623608112335 107.98204690217972 166.38131575286388 5.767432138323783 7.7680638283491117 15.539996653795237 7.2595495283603668 31.579966232180599
leaf_count=42051 61 853 1502 1971 781 1338 1312 695 556 1118 317 14834 758 18345 778 944 523 791 540 377 49 71 98 431 654 23 31 60 29 126
internal_value=0 0.0366079 0.0888722 0.0984959 -0.0407014 0.10585 0.0279628 -0.0461319 0.0553825 0.109196 -0.0013089 0.110702 0.0428942 -0.0467781 -0.0102686 0.0112018 0.0758468 0.0395411 -0.019389 -0.00287138 0.0462731 0.0665375 0.0426047 -0.00753774 0.0032296 0.0142399 0.020615 0.0123309 0.0497697 0.00511378
internal_weight=0 12938.4 7719.63 6666.35 5218.8 5694.97 1053.28 10257.9 971.382 5123.55 697.466 4800.56 557.045 4521.33 474.878 496.236 571.416 421.093 306.366 285.317 211.418 32.4057 179.013 205.092 249.583 83.2019 67.915 52.8874 15.0276 47.12
internal_count=92017 48731 26849 22851 21882 19315 3998 43286 3536 17290 2756 16172 2070 19126 1903 1928 2025 1565 1235 1125 774 120 654 808 984 330 269 209 60 186
is_linear=0
shrinkage=0.05


Tree=9
num_leaves=31
num_cat=0
split_feature=7 7 7 7 7 7 7 7 7 7 6 10 12 1 13 13 4 4 6 10 2 17 4 13 6 6 6 6 13 12
split_gain=42626.2 996.026 658.688 64.6247 46.9241 43.9682 26.3065 9.98732 9.86371 6.47747 6.41107 7.82462 10.1184 6.28073 5.94279 5.62483 5.28978 8.30531 6.16272 6.10893 5.38394 5.16076 9.06545 6.3999 6.6202 6.24241 5.05792 5.01498 4.68995 4.89106
threshold=-0.83120936999999984 -0.95802161499999994 -0.73257759499999986 -0.88757034999999995 -1.0002923499999998 -0.76075809999999988 -0.69030681499999991 -0.92984109999999986 -0.81711909499999991 -1.0284728499999998 -0.57002419999999987 -0.87206223499999991 2.3294651000000006 1.1696598150000002 1.0000000180025095e-35 1.2413191500000003 0.57987410000000017 1.5666968500000003 0.63105477500000007 1.0669978000000002 0.31376361500000011 1.0000000180025095e-35 -1.5674137499999998 -1.2448962499999998 0.15003297000000002 -0.20999560999999997 -1.3136897999999999 1.5990004000000002 -0.86204576999999993 0.97327569000000014
decision_type=2 2 2 2 2 2 2 2 2 2 2 2 2 2 2 2 2 2 2 2 2 2 2 2 2 2 2 2 2 2
left_child=1 4 5 7 9 8 -4 14 15 -1 -10 13 27 -12 -3 -2 21 19 -19 20 28 22 25 24 -24 -5 -9 -13 -18 -30
right_child=2 3 6 16 -6 -7 -8 26 10 -11 11 12 -14 -15 -16 -17 17 18 -20 -21 -22 -23 23 -25 -26 -27 -28 -29 29 -31
leaf_value=0.11206911749864693 0.021101239687065385 0.068506125915476307 -0.031574043469167458 0.035191945106343624 0.092229150088906309 -0.016355289119299499 -0.04699455768559159 0.077550679329884062 -0.0010081655388780666 0.10345277552672252 0.022827559453428337 0.0038855563036581339 0.050952360910687444 0.071594349503262183 0.085196552867622469 0.056995963695856772 -0.0010258095632255449 0.073541752076218367 0.015090510601382688 -0.0012423540905963626 0.047394388575282213 0.049861073273513357 0.041939331920956106 0.036752613624494369 0.11742072136415514 -0.031896870907422221 0.059098354565630576 0.041831380119068451 0.041184479772982285 -0.0042686296616173385
leaf_weight=5479.1829307079315 89.39498682320118 130.2527571618557 281.6903488188982 6.3402804583311081 326.24869540333748 197.22261875867844 15216.562618345022 42.803210616111755 130.75732877850533 227.16549125313759 36.084887027740479 184.36370426416397 13.18133622407913 8.0809620022773725 90.311834216117859 12.431896477937697 15.938589841127394 17.926863282918934 6.0250545889139167 16.99995419383049 32.946782737970352 179.77050696313381 6.3988668322563154 83.65612430870533 5.3200532495975494 7.6518784761428815 280.55117052793503 9.1388721764087659 28.094880491495132 7.4981297552585593
leaf_count=18430 332 454 1166 24 1134 800 64363 150 512 769 139 729 50 30 319 47 61 67 21 65 126 660 24 307 20 25 1022 35 107 29
internal_value=0 0.103149 -0.0446 0.055802 0.110672 0.0035407 -0.0467143 0.0671367 0.0116575 0.111726 0.0079682 0.0126472 0.0085651 0.0317503 0.0753401 0.0254836 0.0409309 0.0323557 0.0588385 0.026105 0.0316082 0.0446508 0.0360866 0.0416003 0.0762057 -0.00149685 0.0615409 0.00567769 0.0215153 0.0316092
internal_weight=0 6991.08 16178.9 958.487 6032.6 680.657 15498.3 543.919 483.434 5706.35 381.607 250.85 206.684 44.1658 220.565 101.827 414.568 125.43 23.9519 101.478 84.4784 289.138 109.367 95.375 11.7189 13.9922 323.354 193.503 51.5316 35.593
internal_count=92017 23814 68203 3481 20333 2674 65529 1945 1874 19199 1495 983 814 169 773 379 1536 476 88 388 323 1060 400 351 44 49 1172 764 197 136
is_linear=0
shrinkage=0.05


Tree=10
num_leaves=31
num_cat=0
split_feature=7 7 7 7 7 7 7 7 7 7 7 7 7 7 7 11 10 2 7 17 7 7 2 6 6 12 10 17 4 14
split_gain=15517.9 20730.1 1637.99 972.204 529.389 190.732 137.231 98.6572 98.2741 46.4776 26.2296 20.8135 14.8271 13.1681 12.8039 7.83005 7.69977 7.61666 7.60023 7.53313 7.50544 7.38138 6.1071 8.92417 6.10449 5.96719 5.88319 5.79718 8.30992 6.1333
threshold=0.09874730800000002 -0.90166062499999988 -0.056245467499999993 -0.76075809999999988 -0.98620212499999982 -0.12669673499999998 0.028296047000000001 0.14806319000000004 -0.81711909499999991 -0.70439707999999979 -0.92984109999999986 -1.0284728499999998 -0.85938983499999988 -0.006929583799999999 -0.16896748999999997 -1.2841102999999998 0.067302670000000009 0.39823675000000008 -0.95802161499999994 1.0000000180025095e-35 0.16919857000000002 0.056476553000000006 0.53833575000000011 -0.20999560999999997 1.5635877000000002 -0.83310249999999986 0.77932368500000015 1.0000000180025095e-35 -1.6400471499999998 -0.79573691999999985
decision_type=2 2 2 2 2 2 2 2 2 2 2 2 2 2 2 2 2 2 2 2 2 2 2 2 2 2 2 2 2 2
left_child=1 4 3 8 11 9 13 -2 12 -5 18 -1 15 16 -11 -3 24 -7 -6 26 25 -8 23 -19 -4 -9 -12 28 -17 -29
right_child=7 2 6 5 10 17 21 20 -10 14 19 -13 -14 -15 -16 27 -18 22 -20 -21 -22 -23 -24 -25 -26 -27 -28 29 -30 -31
leaf_value=-0.046991466276213714 -0.018549860126946285 0.057825481617781428 0.050009327227996538 0.093594823866804511 -0.011026244171866449 0.081851626039057435 0.019085191186633464 -0.0073846723846807396 0.071769375004726382 0.11098633053130898 0.011033200905275429 -0.032886832765333003 0.048031603298639702 0.03842994218716049 0.10062973166743283 0.088722751182686646 0.063817416822488329 0.086012725886325331 0.0030029907268162865 0.02543546530567849 -0.046924832210638062 0.0065204848867057357 0.073507164660866806 0.030805839468989918 0.011987348889798126 -0.039086032413342353 -0.030411384167225487 0.0090125630524403449 0.035251250689192375 0.030187964442113455
leaf_weight=4372.6045846939087 319.85196572542191 27.829960346221924 239.07751169800758 459.5568924844265 187.83055667579174 351.89359346032143 198.97469517588615 16.882654413580894 421.0365606546402 4300.5293900966644 67.875118881464005 278.19461786746979 316.18356284499168 249.91040253639221 320.68709936738014 7.8573801815509787 118.17769303917885 11.125007033348082 198.62339340150356 131.78434297442436 9822.4475368410349 283.3364249765873 155.73609393835068 21.403565406799316 11.044148355722426 122.93425785005093 9.799027204513548 47.312091201543808 96.530030936002731 123.34632390737534
leaf_count=18430 1293 103 865 1571 757 1239 761 63 1495 14399 261 1146 1149 934 1088 30 430 40 773 505 41370 1110 550 71 40 505 34 179 363 463
internal_value=0 0.0363075 0.0882031 0.0975395 -0.0404626 0.105756 0.0316934 -0.0458835 0.0531331 0.10876 0.00390707 -0.0461478 0.0404581 0.0472887 0.110268 0.0325519 0.0532998 0.0775088 -0.00381572 0.0181557 -0.0467611 0.011704 0.0693915 0.049687 0.0483305 -0.0352581 0.00580474 0.0299947 0.0392761 0.0243175
internal_weight=0 13008.3 7761.55 6661.03 5246.71 5620.93 1100.52 10282.1 1040.1 5080.77 595.912 4650.8 619.059 618.21 4621.22 302.876 368.299 540.158 386.454 209.458 9962.26 482.311 188.265 32.5286 250.122 139.817 77.6741 275.046 104.387 170.658
internal_count=92017 48786 26880 22740 21906 18958 4140 43231 3782 17058 2330 19576 2287 2269 15487 1138 1335 1900 1530 800 41938 1871 661 111 905 568 295 1035 393 642
is_linear=0
shrinkage=0.05


Tree=11
num_leaves=31
num_cat=0
split_feature=7 7 7 7 7 7 7 7 6 7 7 10 10 2 2 13 10 5 3 5 6 2 6 6 1 4 13 10 17 5
split_gain=42607.5 875.912 804.983 81.4268 49.0942 34.648 14.3829 12.6225 9.53755 8.26809 5.90646 5.60653 6.05835 5.58725 9.61074 7.23832 4.93387 4.92154 4.84837 4.75139 4.72089 18.4954 4.89084 9.46471 8.32741 6.83527 6.60491 5.52141 5.11093 5.45789
threshold=0.84553068000000009 0.97938808500000019 0.73280865000000006 0.91598195000000004 0.77507942500000004 1.0216588500000003 0.71871841500000011 0.87371119500000016 1.5399793500000001 0.83144045000000011 0.93711733000000008 1.5057119500000002 0.87571797500000004 0.50395520000000016 1.0605552000000003 -0.30881080534999999 1.2955804500000003 1.9980654 1.0000000180025095e-35 1.9980654 -1.4464871999999998 -0.13276209999999997 0.32414515500000002 -0.19819138999999997 0.58576446500000012 0.21625596000000002 -0.30881080534999999 -0.82529862999999992 1.0000000180025095e-35 1.0000000180025095e-35
decision_type=2 2 2 2 2 2 2 2 2 2 2 2 2 2 2 2 2 2 2 2 2 2 2 2 2 2 2 2 2 2
left_child=2 3 6 7 -4 -3 -1 11 17 19 13 12 -2 16 15 -15 -5 -9 -14 20 21 -6 23 -22 -24 -25 27 -26 -27 -30
right_child=1 5 4 10 9 -7 -8 8 -10 -11 -12 -13 18 14 -16 -17 -18 -19 -20 -21 22 -23 24 25 26 28 -28 -29 29 -31
leaf_value=-0.046867054138410413 0.036971390953985904 0.095753946600241585 -0.011771139859356693 0.069539498941984801 0.073197363561411086 0.1124309917909844 -0.026407178083267521 0.05660185281522552 0.014684575292363564 0.027280725150491427 0.079501944974542049 0.0088453679741029266 0.030271674764902806 0.065941651981872337 0.077794129545665724 0.0071895798603692322 0.10409235832052031 0.025074335572937374 0.087652755268207844 -0.013776180444942035 0.012426026374075902 -0.00024226299400674606 0.0083961800450720863 -0.026957844217805123 0.091652789819802419 -0.017928699086358701 0.017375814006784365 0.037853798130950127 0.059926794841227406 -0.0022938218664782756
leaf_weight=15352.768914118409 175.0183230638504 329.88253271579742 277.7788180410862 86.155065327882767 14.499605596065519 5571.8886105716228 86.380531996488571 284.06118452548981 15.250433415174482 99.703720137476921 321.06937918066978 15.9384808242321 5.5133976638317135 8.4412176311016101 19.096788346767426 13.834024071693419 11.739121735095976 12.942300945520399 11.078072786331175 18.165624022483826 138.1107625067234 20.975400984287262 100.41030490398407 32.260756492614746 6.3376002609729793 10.840923577547075 33.216113924980164 19.270742118358612 6.8090291619300825 7.3064520955085754
leaf_count=65122 654 1134 1118 313 52 18770 359 1038 57 379 1125 60 21 31 69 48 42 46 39 74 544 79 392 128 23 43 127 74 27 29
internal_value=0 0.104229 -0.0442402 0.0604577 0.0051295 0.111499 -0.0467526 0.0468956 0.0532479 0.0143726 0.0757718 0.0373387 0.0397088 0.0671724 0.051767 0.0294537 0.073683 0.055228 0.0685848 0.0112198 0.012384 0.0297745 0.010644 0.00534182 0.0171479 -0.011758 0.0320868 0.0511681 0.00789056 0.0277202
internal_weight=0 6881.91 16224.8 980.138 785.686 5901.77 15439.1 519.802 312.254 507.907 460.336 207.548 191.61 139.266 41.372 22.2752 97.8942 297.003 16.5915 408.203 390.038 35.475 354.563 195.328 159.235 57.2172 58.8245 25.6083 24.9564 14.1155
internal_count=92017 23447 68570 3543 3089 19904 65481 1915 1141 1971 1628 774 714 503 148 79 355 1084 60 1592 1518 131 1387 771 616 227 224 97 99 56
is_linear=0
shrinkage=0.05


Tree=12
num_leaves=31
num_cat=0
split_feature=7 7 7 7 7 7 7 7 7 7 7 7 7 7 7 7 7 7 6 7 7 1 0 2 6 1 6 13 2 3
split_gain=14263.1 18012.2 1421.64 813.427 361.502 183.315 89.7303 89.2457 83.1701 56.0564 27.0461 17.259 15.8604 14.798 11.239 11.1652 9.11649 8.06852 7.22959 6.54707 6.4114 6.06076 11.29 5.90583 5.90312 5.83224 5.68969 6.09481 8.06176 5.98938
threshold=-0.10556134799999999 0.91598195000000004 0.042386301000000008 0.77507942500000004 1.0075686000000001 0.11988269000000001 -0.035110087999999991 -0.15487722999999998 0.84553068000000009 0.71871841500000011 0.97938808500000019 0.16919857000000002 1.0357491500000002 0.014205795500000002 0.87371119500000016 -0.070335717999999978 0.93711733000000008 0.084657055000000023 1.5163709000000003 -0.12669673499999998 0.74689893000000007 1.0000000180025095e-35 -1.5850370499999997 -0.62846359999999979 -0.13621926499999998 1.1696598150000002 -0.6438005349999999 1.2413191500000003 0.85411930000000014 1.6247503500000002
decision_type=2 2 2 2 2 2 2 2 2 2 2 2 2 2 2 2 2 2 2 2 2 2 2 2 2 2 2 2 2 2
left_child=7 2 6 5 10 17 15 -1 -5 11 16 -7 -6 26 -10 -2 21 -4 -16 -9 -11 -3 -23 -18 -25 -19 -8 29 -29 -28
right_child=1 4 3 8 12 9 13 19 14 20 -12 -13 -14 -15 18 -17 23 25 -20 -21 -22 22 -24 24 -26 -27 27 28 -30 -31
leaf_value=-0.046175178361456543 0.0032829605332880072 0.0024258093482519951 0.063784018275740359 0.061693611903102109 -0.031589245200968903 0.090038205510621416 0.024193645812554641 -0.025154964489894356 0.042813153855053333 0.087168763092684953 -0.020479500477787807 0.10071090745850786 -0.046617678658673826 0.050221976774021328 0.02605840692149718 0.018246851780517964 0.0088965048088039036 0.078807823423233669 0.059138154880790952 -0.010329014921577321 0.075186402206735503 0.074096763390908135 0.015487047850762166 -0.016122830090134255 0.00092626196760614468 0.058956913799279302 0.043557989868139316 0.0024124513559426707 0.056529237543837929 0.01404958693544971
leaf_weight=9574.885905906558 249.39146663248539 64.661576837301254 328.44567042589188 570.81094074249268 183.28643292188644 413.4283364713192 111.24401485919952 166.8976703286171 217.03958383202553 228.80912005901337 186.0451994985342 4522.1135948300362 4165.1028799414635 213.19734379649162 289.36912798881531 249.23885950446129 80.378418266773224 221.81638342142105 17.516777008771896 134.4493555277586 218.00023227930069 9.5927030742168409 57.278945744037628 96.021949306130409 107.73737215995789 44.408939510583878 193.88833358883858 23.87734118103981 9.6684847474098188 18.869685292243958
leaf_count=42051 984 244 1126 1971 781 1338 414 695 774 754 778 14475 18345 758 1078 944 317 750 63 540 723 37 222 377 431 149 713 85 32 68
internal_value=0 0.0342559 0.0799887 0.0881137 -0.0409579 0.095371 0.0262581 -0.045332 0.0484902 0.0982816 -0.0046345 0.0998169 -0.0459842 0.0397958 0.0341052 0.0107626 0.00245738 0.0690275 0.0279466 -0.0185402 0.0813225 0.0133406 0.0238946 -0.00258067 -0.00710815 0.0754965 0.0335789 0.0378177 0.0180098 0.0409409
internal_weight=0 13091.2 8141.13 7071.76 4950.11 5977.02 1069.38 9876.23 1094.74 5382.35 601.716 4935.54 4348.39 570.745 523.925 498.63 415.671 594.671 306.886 301.347 446.809 131.533 66.8716 284.138 203.759 266.225 357.548 246.304 33.5458 212.758
internal_count=92017 48731 27199 23201 21532 19315 3998 43286 3886 17290 2406 15813 19126 2070 1915 1928 1628 2025 1141 1235 1477 503 259 1125 808 899 1312 898 117 781
is_linear=0
shrinkage=0.05


Tree=13
num_leaves=31
num_cat=0
split_feature=7 7 7 7 7 7 7 7 7 2 6 7 13 13 1 4 4 6 11 6 2 10 2 3 6 6 4 2 6 4
split_gain=37339 795.463 636.73 53.1804 39.3861 37.7848 26.3217 8.84051 7.98401 6.3225 6.02423 5.1877 5.07268 4.91946 6.31338 4.66172 7.98216 5.43454 4.50039 5.52945 5.32764 5.70197 5.661 4.47902 4.33953 4.27234 4.38744 6.50044 4.73959 4.54983
threshold=-0.83120936999999984 -0.95802161499999994 -0.73257759499999986 -0.88757034999999995 -0.76075809999999988 -1.0002923499999998 -0.69030681499999991 -0.80302884999999991 -0.92984109999999986 1.5814839500000002 1.5990004000000002 -1.0284728499999998 1.0000000180025095e-35 -1.2448962499999998 0.58576446500000012 0.68508795000000011 1.5666968500000003 -0.34574408999999995 1.1664782500000002 0.10576715250000002 0.79687735500000012 -0.040884346499999995 -1.76315165 0.66872187500000013 -1.3136897999999999 1.6550704500000004 -0.21743140499999999 0.89914165000000013 0.83467747000000014 -0.52012201999999996
decision_type=2 2 2 2 2 2 2 2 2 2 2 2 2 2 2 2 2 2 2 2 2 2 2 2 2 2 2 2 2 2
left_child=1 5 4 8 7 11 -4 9 12 -2 13 -1 23 14 -9 25 -17 -18 20 -20 22 -22 -15 -3 -10 26 27 29 -29 -5
right_child=2 3 6 15 -6 -7 -8 10 24 -11 -12 -13 -14 18 -16 16 17 -19 19 -21 21 -23 -24 -25 -26 -27 -28 28 -30 -31
leaf_value=0.10078131904988191 0.021895315092578443 0.058018612283739814 -0.030589528813894297 0.037707748696496499 -0.015504628716747139 0.083383095610428518 -0.046219665388309045 0.0036378414703875394 0.07101493497425064 -0.014939769084388432 0.042708336988493516 0.093254159646431176 0.077489636546807336 0.032979861287772937 0.045421529813009044 0.022194162515766985 0.080079291388698959 0.032979529129164811 0.0023948562984574388 0.051065676002131327 0.029531958508628393 -0.0066131118843429414 -0.0064868392525822306 0.081363998675710203 0.054240414263279128 0.0031704579910697191 0.049104837281996744 0.070164833579824254 0.025888840140737342 0.017474179003353959
leaf_weight=5760.131400346756 178.98811927437782 110.02238342165947 274.40523326396942 109.85243690013885 194.21385714411736 341.47202286124229 14641.96032088995 21.37582391500473 44.468308478593826 12.460452020168303 10.599540710449217 238.37674340605736 94.205829679965973 9.6053033769130689 15.665968924760817 87.917602613568306 11.215722858905794 13.491607099771498 14.290356755256655 9.8633785843849164 26.888138324022293 18.362430602312088 168.05153647065163 25.263418257236481 289.94504472613335 7.2447129786014548 127.26612392067909 22.013502836227421 8.3319924175739271 37.189666897058487
leaf_count=18430 679 371 1166 393 800 1134 64363 85 150 44 40 769 319 38 62 331 40 48 57 39 106 69 655 83 1022 27 458 81 29 129
internal_value=0 0.0930569 -0.0437745 0.0513367 0.00352876 0.0995612 -0.0459321 0.0111325 0.0613995 0.0194979 0.00569799 0.100482 0.0685814 0.00431718 0.0213093 0.0379699 0.0292506 0.0543601 0.00176956 0.02227 -0.000451825 0.0148645 -0.00435301 0.0623782 0.056471 0.0411184 0.0420209 0.0369385 0.0580079 0.0325903
internal_weight=0 7328.41 15596.7 988.428 680.365 6339.98 14916.4 486.151 563.905 191.449 294.702 5998.51 229.492 284.103 37.0418 424.523 112.625 24.7073 247.061 24.1537 222.907 45.2506 177.657 135.286 334.413 311.898 304.654 177.388 30.3455 147.042
internal_count=92017 23814 68203 3481 2674 20333 65529 1874 1945 723 1151 19199 773 1111 147 1536 419 88 964 96 868 175 693 454 1172 1117 1090 632 110 522
is_linear=0
shrinkage=0.05


Tree=14
num_leaves=31
num_cat=0
split_feature=7 7 7 7 7 7 7 7 7 7 7 7 7 7 17 7 7 11 10 7 7 2 6 12 0 6 6 2 2 10
split_gain=14121.1 17840.8 1323.06 778.942 509.576 152.52 116.298 97.6111 80.5149 38.3152 23.3649 20.7785 12.4373 10.894 10.2513 9.97168 7.50598 6.84666 6.72569 6.69311 6.50681 6.32473 6.21006 5.83799 5.47251 6.05419 5.92512 5.39925 5.35876 5.23011
threshold=0.09874730800000002 -0.90166062499999988 -0.056245467499999993 -0.76075809999999988 -0.98620212499999982 -0.12669673499999998 0.028296047000000001 0.14806319000000004 -0.81711909499999991 -0.7184873249999999 -0.94393134999999984 -1.0284728499999998 -0.85938983499999988 -0.006929583799999999 1.0000000180025095e-35 -0.15487722999999998 0.16919857000000002 -1.2841102999999998 -0.13503314499999997 -0.091471099999999986 0.056476553000000006 0.38782270000000002 1.5635877000000002 -0.83310249999999986 1.0000000180025095e-35 1.32455235 0.74614584500000014 1.8158908500000004 1.4084545000000002 0.43584956000000002
decision_type=2 2 2 2 2 2 2 2 2 2 2 2 2 2 2 2 2 2 2 2 2 2 2 2 2 2 2 2 2 2
left_child=1 4 3 8 11 9 13 -2 12 -5 -6 -1 17 18 -12 -11 23 -3 22 -7 -8 -21 28 -9 25 26 -19 -20 -4 -14
right_child=7 2 6 5 10 19 20 16 -10 15 14 -13 29 -15 -16 -17 -18 24 27 21 -22 -23 -24 -25 -26 -27 -28 -29 -30 -31
leaf_value=-0.046191555369465176 -0.017658543865332787 0.05365554032067546 0.043104580789397606 0.08221794544819902 -0.0064152449340441516 0.076038342961990746 0.01808473179470314 -0.0065815085524361314 0.065457074686349134 0.09954082972178363 0.0016187212871288975 -0.031903136181961146 0.040755365347229004 0.035736863568620297 0.020419832124636578 0.088542932635328961 -0.046133203024846831 0.040332368821776071 0.0595287081708053 0.070804247096518322 0.0063286973879130475 0.055294117441094262 0.0059632739788228048 -0.038173347698285835 0.024502734891582778 -0.0016592891700460207 0.086699682261100891 0.01533102959947953 0.070678851941605655 0.055454188144175812
leaf_weight=4204.7355573177338 314.53894141316414 28.65799006819725 200.79901045560837 362.09567010402679 285.84561884403229 279.01643842458725 201.01496803760529 16.667124226689339 437.38883963227272 4757.1432317495346 115.66402342915535 270.82887531816959 244.45012000203133 255.49809753894806 194.29273077845573 215.43932199478149 9451.5867672562599 40.706816971302032 141.68699821829796 179.58892649412155 283.99234771728516 103.67068639397621 10.387977063655851 119.26942001283169 224.04327952861786 6.9584970474243155 8.2936734557151777 7.264215260744094 19.314395934343338 80.43019312620163
leaf_count=18430 1293 103 705 1188 1148 936 761 63 1495 15175 441 1146 864 934 741 695 41370 151 498 609 1110 355 37 505 829 24 31 26 69 285
internal_value=0 0.0339776 0.0800784 0.088186 -0.0395441 0.0953103 0.0296364 -0.0450663 0.0489572 0.0979209 0.00389539 -0.0453269 0.0375659 0.0437183 0.013404 0.0990643 -0.0459654 0.0303785 0.0490924 0.0705418 0.0112011 0.0651277 0.0437413 -0.0342999 0.0279962 0.0419828 0.0481804 0.0573732 0.0455242 0.0443943
internal_weight=0 13159.2 8087.84 6967.88 5071.37 5896.95 1119.96 9902.06 1070.93 5334.68 595.802 4475.56 633.541 634.951 309.957 4972.58 9587.52 308.66 379.453 562.276 485.007 283.26 230.501 135.937 280.002 55.959 49.0005 148.951 220.113 324.88
internal_count=92017 48786 26880 22740 21906 18958 4140 43231 3782 17058 2330 19576 2287 2269 1182 15870 41938 1138 1335 1900 1871 964 811 568 1035 206 182 524 774 1149
is_linear=0
shrinkage=0.05


Tree=15
num_leaves=31
num_cat=0
split_feature=7 7 7 7 7 7 7 7 7 6 13 2 2 11 11 10 10 6 13 5 10 10 14 2 6 4 12 10 4 2
split_gain=37299.1 851.633 602.195 91.1158 31.3571 28.0843 14.6231 10.9077 10.1467 5.68374 4.85851 10.5264 6.34338 7.90359 5.86943 5.19505 10.7996 10.5562 6.96999 6.95775 5.96705 4.81989 4.86175 6.50832 6.62531 4.84391 4.7631 4.63106 4.62168 4.57573
threshold=0.83144045000000011 0.97938808500000019 0.73280865000000006 0.90189171500000009 0.77507942500000004 1.0216588500000003 0.69053789500000018 0.87371119500000016 0.93711733000000008 1.5281751000000001 1.2413191500000003 -0.072081009999999987 0.37731016000000006 0.58623543000000011 -0.81459463499999984 -0.87603691999999989 -0.7966707999999999 1.2891397500000001 0.85846866500000008 1.9980654 -0.015989983499999996 1.7592421 1.0000000180025095e-35 -0.020002548499999998 -0.28377194499999997 0.6631522700000001 -0.48209483499999994 -0.41664182999999994 1.2634017000000002 0.15898174000000001
decision_type=2 2 2 2 2 2 2 2 2 2 2 2 2 2 2 2 2 2 2 2 2 2 2 2 2 2 2 2 2 2
left_child=2 3 6 7 28 -3 -1 10 9 -5 15 14 -13 -14 -12 17 -17 -2 19 -18 -20 22 23 26 25 27 -9 -25 -4 -23
right_child=1 5 4 8 -6 -7 -8 21 -10 -11 11 12 13 -15 -16 16 18 -19 20 -21 -22 29 -24 24 -26 -27 -28 -29 -30 -31
leaf_value=-0.046186646885711669 0.029572426671818683 0.086403771279912528 -0.0086159758949715028 0.060629663697887061 0.010713124870456649 0.10106810902056858 -0.034218110006966659 0.047031477859107204 0.072174862835183998 0.027463463162913246 0.086636560935607343 -0.038984094977917202 -0.014711367180060024 0.049735242327145907 0.025567681511642428 0.077957356253814392 0.027998246814934232 -0.036765287073008357 0.074871455871886011 0.070571756517517195 0.033227900116397466 0.050080682009846444 0.036099597016044344 0.020277813222353586 0.025580849985323451 0.093272995092719899 0.077311326693385002 0.073699962816428585 -0.027966913436342389 0.10452456764180684
leaf_weight=14597.678145349026 36.31924307346344 345.76076018810272 239.33276319503784 230.43163138628006 410.50973968207836 5859.9664190113544 259.75153118371964 22.963980376720428 334.80271327495575 13.684765100479124 6.136572033166888 8.3017949759960192 10.962403252720835 8.4047317653894407 10.964833348989485 15.364326387643812 164.77666261792183 7.1829234063625327 18.090922981500626 10.190382838249205 16.400288879871368 9.1849851012229902 95.878228425979614 8.855881422758106 33.693573504686356 7.5053596496582022 29.894224047660828 7.4859321117401132 35.422532767057419 6.6557988226413718
leaf_count=64345 127 1134 979 809 1592 18770 1136 81 1125 44 23 32 42 32 41 55 613 26 67 36 59 33 337 32 122 27 108 27 139 24
internal_value=0 0.0930248 -0.0438638 0.0527741 0.00196289 0.100251 -0.0459774 0.037903 0.0665225 0.0587704 0.0318909 0.0166427 -0.00241782 0.0132564 0.0474813 0.0344351 0.0374954 0.018619 0.0345274 0.0304778 0.0550703 0.0463776 0.0443365 0.05149 0.0398543 0.0600213 0.0641564 0.0447497 -0.0111108 0.0729563
internal_weight=0 7319.86 15542.7 1114.13 685.265 6205.73 14857.4 535.213 578.919 244.116 313.095 44.7703 27.6689 19.3671 17.1014 268.325 224.823 43.5022 209.458 174.967 34.4912 222.118 206.277 110.399 57.5407 23.8472 52.8582 16.3418 274.755 15.8408
internal_count=92017 23826 68191 3922 2710 19904 65481 1944 1978 853 1153 170 106 74 64 983 830 153 775 649 126 791 734 397 208 86 189 59 1118 57
is_linear=0
shrinkage=0.05


Tree=16
num_leaves=31
num_cat=0
split_feature=7 7 7 7 7 7 7 7 7 7 7 7 7 7 7 7 7 7 6 7 9 0 6 6 4 6 1 0 2 6
split_gain=13011.3 15652.5 1175.25 672.443 351.727 153.509 88.522 76.7188 69.266 47.5689 24.6727 15.9952 14.6438 12.3812 9.72189 9.32598 8.08642 6.59271 6.23213 6.11571 5.57132 5.52841 5.86557 8.00511 6.9131 5.89946 5.5177 9.88087 5.49154 5.55222
threshold=-0.10556134799999999 0.91598195000000004 0.042386301000000008 0.77507942500000004 1.0075686000000001 0.11988269000000001 -0.15487722999999998 -0.035110087999999991 0.84553068000000009 0.71871841500000011 0.97938808500000019 1.0357491500000002 0.16919857000000002 0.014205795500000002 -0.070335717999999978 0.87371119500000016 0.93711733000000008 0.084657055000000023 1.5399793500000001 -0.12669673499999998 -0.61409607049999981 1.0000000180025095e-35 0.96452383000000008 -1.4464871999999998 0.10332394300000002 -0.78840214999999991 1.0000000180025095e-35 -1.5850370499999997 -0.62846359999999979 -0.13621926499999998
decision_type=2 2 2 2 2 2 2 2 2 2 2 2 2 2 2 2 2 2 2 2 2 2 2 2 2 2 2 2 2 2
left_child=6 2 7 5 10 17 -1 14 -5 12 16 -6 -7 -9 20 -10 26 -4 -17 -8 21 -2 23 -23 -24 -25 -3 -28 -18 -30
right_child=1 4 3 8 11 9 19 13 15 -11 -12 -13 -14 -15 -16 18 28 -19 -20 -21 -22 22 24 25 -26 -27 27 -29 29 -31
leaf_value=-0.045438349353429525 -0.01346116513884278 0.0022774612236042837 0.058564153696811755 0.056720489069246149 -0.030568977559345026 0.082110298354466316 -0.024159147406597824 0.031392199551638661 0.039672977793291278 0.074215748921006533 -0.019546407888126015 -0.045884667102892567 0.091765811414080828 0.046440103414376738 0.017289817311722574 0.024597227888228563 0.0087832267214798723 0.068978422719134388 0.056242360330122726 -0.0097162007339457179 -0.0019519946567250334 0.06670175539557624 0.079028922407360577 -0.0203316284692211 0.011809121309191586 0.017445004656866853 0.068761546632760434 0.014767932903638165 -0.01546963707656813 0.0011264399115270716
leaf_weight=9197.7437666654587 15.131378278136252 64.776169240474701 338.84572178125381 588.47568443417549 178.06940884888172 428.59470391273499 163.09115694463253 364.15146833658218 222.2033668756485 462.70586776733398 182.50984653830528 3996.5648766458035 4686.7267419099808 218.84207046031952 251.67139676213264 295.12749117612839 80.485827744007111 275.54105907678604 16.424168825149536 133.12178793549538 165.63901956379414 5.9513659477233878 8.0695106983184797 15.317056655883784 7.2715420573949805 31.77330702543259 9.9312939047813398 57.714872688055038 94.912547573447227 107.44779217243195
leaf_count=42051 61 244 1126 1971 781 1338 695 1312 774 1477 778 18345 14475 758 944 1084 317 899 57 540 654 23 31 60 29 126 37 222 377 431
internal_value=0 0.032213 0.0733019 0.0805017 -0.0400949 0.0869554 -0.0445719 0.0247111 0.0448902 0.0895681 -0.00422392 -0.0452314 0.0909568 0.0370408 0.0103585 0.031847 0.00251028 0.0632348 0.0262655 -0.0176683 0.00335703 0.0138868 0.0199382 0.0120628 0.0471672 0.00515742 0.0127074 0.0226949 -0.00226379 -0.00665758
internal_weight=0 13170.9 8398.46 7314.64 4772.41 6192.41 9493.96 1083.82 1122.23 5578.03 597.778 4174.63 5115.32 582.994 500.825 533.755 415.269 614.387 311.552 296.213 249.153 83.5142 68.3828 53.0417 15.3411 47.0904 132.422 67.6462 282.846 202.36
internal_count=92017 48731 27199 23201 21532 19315 43286 3998 3886 17290 2406 19126 15813 2070 1928 1915 1628 2025 1141 1235 984 330 269 209 60 186 503 259 1125 808
is_linear=0
shrinkage=0.05


Tree=17
num_leaves=31
num_cat=0
split_feature=7 7 7 7 7 7 7 7 7 6 10 12 4 1 7 10 4 12 14 13 2 11 9 6 6 2 6 6 17 12
split_gain=32998.9 796.717 455.9 62.28 39.687 31.7924 10.6416 8.00188 6.59332 5.75652 6.94799 9.00919 5.84047 10.8845 5.13774 4.99881 6.05426 4.5871 7.47704 4.66821 4.54037 4.35693 5.08014 4.35276 5.09454 4.77621 5.26749 10.6071 7.3757 7.55239
threshold=-0.81711909499999991 -0.95802161499999994 -0.7184873249999999 -0.88757034999999995 -0.76075809999999988 -1.0143826499999997 -0.69030681499999991 -0.85938983499999988 -0.92984109999999986 -0.57002419999999987 -0.87206223499999991 2.3294651000000006 0.99028075000000015 1.1696598150000002 -0.98620212499999982 0.16601805000000003 0.83529995000000012 -0.83310249999999986 -0.79573691999999985 1.0000000180025095e-35 1.4339642500000001 -1.0754078499999997 1.0000000180025095e-35 1.6226088500000004 1.3688182000000002 -1.1193613499999999 -1.1366264999999998 -0.93300382999999987 1.0000000180025095e-35 0.97327569000000014
decision_type=2 2 2 2 2 2 2 2 2 2 2 2 2 2 2 2 2 2 2 2 2 2 2 2 2 2 2 2 2 2
left_child=1 5 4 8 9 -1 -4 23 17 -2 12 -12 13 -11 -7 16 -9 18 -3 -19 -17 22 -18 24 25 -5 -27 -28 -29 -30
right_child=2 3 6 7 -6 14 -8 15 -10 10 11 -13 -14 -15 -16 20 21 19 -20 -21 -22 -23 -24 -25 -26 26 27 28 29 -31
leaf_value=0.091682380917683937 -0.001056307839939405 -0.00094649756981820599 -0.03311899595347978 0.017816029699568997 -0.017245966803923273 0.083378319778898646 -0.045488356340684294 0.036280013811104801 0.052009634011685506 0.025341534156558217 0.0052635171235470499 0.04745853139404263 -0.008591115332286162 0.095804807701948727 0.072967397212958487 0.021057469112041198 0.061736743222872037 0.058715395840550313 0.062295262610612127 0.073582639583899101 -0.025244528184179351 0.0060077727189371639 0.0013254271849304404 -0.001953628940517533 0.06811407927185581 0.05968032347816539 0.0011288534782741403 0.02729104751612775 0.06002763721663415 0.018527721220369626
leaf_weight=6097.2024564146996 130.83592464029789 7.1654507517814663 176.05807974934578 23.145048230886459 282.04082611203194 240.13116252422333 14067.12437671423 173.94610294699669 344.22130608558655 30.119436115026474 194.45265755057335 13.530633747577665 8.1598919034004194 6.6995757222175589 233.96563136577606 92.863952487707138 9.133434593677519 125.06877446174622 13.440088629722593 91.374281346797943 5.6146984398365012 32.824053049087524 5.622121810913085 5.9547921419143668 16.451625436544418 33.877019345760345 17.357534795999527 46.569517761468887 61.52973735332489 13.339820265769957
leaf_count=18820 512 22 778 81 1188 756 64363 622 1172 116 764 50 29 24 757 335 33 407 45 299 21 119 19 20 59 120 54 166 219 47
internal_value=0 0.0840702 -0.043445 0.0450805 -0.00300613 0.0907126 -0.0453355 0.0328248 0.0564287 0.00745826 0.0118621 0.00800857 0.0296811 0.038163 0.0782406 0.0277903 0.031957 0.0628457 0.0403033 0.0649918 0.0184176 0.0161523 0.038719 0.0402074 0.0413901 0.0391449 0.0420039 0.0376894 0.0429151 0.0526334
internal_weight=0 7690.8 14909 1119.5 665.839 6571.3 14243.2 538.229 581.27 383.798 252.962 207.983 44.9789 36.819 474.097 320.004 221.526 237.049 20.6055 216.443 98.4787 47.5796 14.7556 218.225 212.27 195.819 172.674 138.797 121.439 74.8696
internal_count=92017 24193 67824 3860 2683 20333 65141 1915 1945 1495 983 814 169 140 1513 1149 793 773 67 706 356 171 52 766 746 687 606 486 432 266
is_linear=0
shrinkage=0.05


Tree=18
num_leaves=31
num_cat=0
split_feature=7 7 7 7 7 7 7 7 7 7 7 7 7 2 10 7 7 7 4 4 2 4 12 6 6 9 10 1 10 6
split_gain=12875.6 15491.5 1057.83 783.436 362.586 127.418 98.7483 96.7966 86.1543 32.8826 20.8382 19.6241 13.3361 10.1546 10.6353 9.11106 9.09473 7.54328 7.52083 9.50375 7.15212 6.38485 6.23778 6.08129 6.01411 6.3828 5.95223 6.32541 5.92188 5.83204
threshold=0.09874730800000002 -0.91575086999999988 -0.056245467499999993 -0.76075809999999988 -0.98620212499999982 -0.12669673499999998 0.028296047000000001 0.14806319000000004 -0.81711909499999991 -0.70439707999999979 -1.0284728499999998 -0.87348011499999989 -0.95802161499999994 -1.3031364999999997 -0.35729358499999991 -0.16896748999999997 -0.006929583799999999 0.16919857000000002 0.49725339000000007 -0.18549245999999997 0.29373121000000008 1.5666968500000003 0.97327569000000014 0.38021515500000008 -0.42247147499999999 1.0000000180025095e-35 -0.24884552499999998 0.58576446500000012 0.067302670000000009 -1.4022213999999997
decision_type=2 2 2 2 2 2 2 2 2 2 2 2 2 2 2 2 2 2 2 2 2 2 2 2 2 2 2 2 2 2
left_child=1 4 3 8 10 9 16 -2 11 -5 -1 13 -6 14 -3 -11 28 -9 19 -13 21 24 -21 -24 -20 -26 -22 -28 -4 -15
right_child=7 2 6 5 12 -7 -8 17 -10 15 -12 18 -14 29 -16 -17 -18 -19 20 22 26 -23 23 -25 25 -27 27 -29 -30 -31
leaf_value=-0.045434390397111404 -0.016774950339108575 0.090297863437922843 0.041140513699576498 0.077004969619645702 -0.0096883140437021582 0.064637369511883397 0.010784009876646312 -0.033346910103780041 0.060085184364709554 0.091048814181871898 -0.030920254648522966 0.04114069192529022 0.007372303912742257 -0.00057502430116048451 0.026271890458974573 0.082665953272831633 0.033328884179907585 -0.045384495502359193 0.080660992705669857 0.017177460574123421 0.021170789526413339 0.02671738750714275 0.081030295892964663 0.014337691762263183 0.039045613565784745 0.07948879237756501 0.069175421377868418 0.01919563289056124 0.054329731448996554 0.022568250931980314
leaf_weight=4036.1173489093781 309.2960444688797 10.907874286174776 263.62903869152069 498.50087502598763 183.81403195858002 580.94238701462746 487.2285293340683 132.03575445711613 451.3224136531353 4679.5591175854206 263.43731524050236 189.39658343791962 303.96358925104141 30.47966679930687 15.999713182449339 348.25625005364418 260.5389406979084 9079.8791851252317 29.696343272924423 87.147918403148651 34.012933969497681 14.302165061235426 8.1582680046558362 5.8827673494815818 31.141609072685242 14.20609003305435 18.665609389543537 9.579447925090788 125.67869716882706 254.64517477154732
leaf_count=18430 1293 41 905 1571 757 1900 1871 568 1495 14399 1146 658 1169 114 60 1088 934 41370 105 303 117 49 29 21 108 50 66 34 430 936
internal_value=0 0.0319514 0.0726651 0.0796411 -0.0399103 0.0869121 0.0278009 -0.0442882 0.042806 0.0892537 -0.0445451 0.0324662 0.000943184 0.0228652 0.0522269 0.0904682 0.0405594 -0.045212 0.0392413 0.0345313 0.048269 0.0573345 0.0221604 0.0530881 0.0631696 0.0517153 0.0352592 0.0522245 0.0453983 0.0200942
internal_weight=0 13237.2 8449.88 7312.8 4787.33 6107.26 1137.08 9521.21 1205.54 5526.32 4299.55 754.222 487.778 312.032 26.9076 5027.82 649.847 9211.91 442.19 290.586 151.604 89.3462 101.189 14.041 75.044 45.3477 62.258 28.2451 389.308 285.125
internal_count=92017 48786 27284 23144 21502 18958 4140 43231 4186 17058 19576 2691 1926 1151 101 15487 2269 41938 1540 1011 529 312 353 50 263 158 217 100 1335 1050
is_linear=0
shrinkage=0.05


Tree=19
num_leaves=31
num_cat=0
split_feature=7 7 7 7 7 7 7 7 7 6 10 10 6 14 4 10 10 4 10 6 6 4 6 10 2 5 2 6 1 2
split_gain=32946.4 703.748 584.366 75.1464 28.0778 23.9907 14.8173 8.91857 8.23214 4.86147 4.6627 4.66347 8.13374 7.31066 5.34771 8.1741 5.36795 5.209 4.59283 11.5799 7.00991 4.42093 4.37981 7.01823 6.51312 4.34991 4.24611 12.8968 8.1077 11.2647
threshold=0.83144045000000011 0.97938808500000019 0.73280865000000006 0.90189171500000009 0.77507942500000004 1.0216588500000003 0.69053789500000018 0.87371119500000016 0.93711733000000008 1.5281751000000001 2.2829196500000006 -0.87603691999999989 1.2891397500000001 1.0000000180025095e-35 -0.54355127999999986 -0.29509939999999996 -0.7966707999999999 -1.2279733999999998 -0.84823375999999995 0.25036879000000006 1.5045667000000003 1.2634017000000002 -0.27196773999999996 -0.10427046699999999 1.1683282500000003 1.9980654 0.43981629000000005 -1.4464871999999998 1.0000000180025095e-35 0.82663120000000012
decision_type=2 2 2 2 2 2 2 2 2 2 2 2 2 2 2 2 2 2 2 2 2 2 2 2 2 2 2 2 2 2
left_child=2 3 6 7 21 -3 -1 10 9 -5 11 12 -2 14 15 17 -16 -13 19 -9 -20 -4 24 -24 -18 26 27 -6 -28 -30
right_child=1 5 4 8 25 -7 -8 18 -10 -11 -12 13 -14 -15 16 -17 22 -19 20 -21 -22 -23 23 -25 -26 -27 28 -29 29 -31
leaf_value=-0.045460338022926906 0.025528453989406331 0.078737145141383413 -0.0079825900511277404 0.055790746192202582 0.049813621039597578 0.092047929931716579 -0.033217957121748271 0.0085707515839243947 0.065992679646308353 0.025393542518093212 -0.0043397090944002027 0.019888173631731943 -0.030543756524669438 0.043725972244350556 0.069553829333984171 0.033845446879993912 0.024376118373415329 -0.031148772432549734 0.04889608590952596 0.059522198155913503 0.006320005336993193 -0.027090886563399665 0.021870297509173551 0.055869620612900198 -0.033930347899103257 -0.013667347520446108 -0.0082283350240563383 0.011495060541497454 -0.013428492346759805 0.032309731058751491
leaf_weight=14023.993610560894 43.797171086072922 358.48641994595528 236.9143345952034 237.5630969107151 24.13649794459343 6075.8711058497429 251.59278258681297 27.980551660060883 346.36465647816658 13.924439072608946 9.6243482232093793 8.3317612409591693 7.5879871845245352 107.12461969256401 8.9362995624542219 20.301084131002426 33.412682756781578 12.500313624739645 170.97909063100815 18.540622472763062 10.247053295373915 34.703826412558556 33.09814989566803 28.03497987985611 5.5910089015960684 18.132275447249413 66.342859148979187 243.34594823420048 20.187870606780052 40.403961390256882
leaf_count=64345 153 1134 979 809 85 18770 1136 97 1125 44 37 31 28 384 32 73 125 48 590 66 38 139 123 98 21 74 257 943 77 156
internal_value=0 0.0848818 -0.0430812 0.0487455 0.00205928 0.0913063 -0.0452446 0.0353367 0.0609932 0.0541077 0.0299321 0.0310005 0.0172483 0.0337466 0.0266295 0.0112667 0.0324231 -0.0107366 0.0428912 0.028877 0.0464887 -0.010424 0.0291095 0.037462 0.0160181 0.0102781 0.011379 0.0149528 0.0038481 0.0170708
internal_weight=0 7578.3 14959.8 1143.94 684.168 6434.36 14275.6 546.088 597.852 251.488 318.34 308.716 51.3852 257.331 150.206 41.1332 109.073 20.8321 227.747 46.5212 181.226 271.618 100.137 61.1331 39.0037 412.549 394.417 267.482 126.935 60.5918
internal_count=92017 23826 68191 3922 2710 19904 65481 1944 1978 853 1153 1116 181 935 551 152 399 79 791 163 628 1118 367 221 146 1592 1518 1028 490 233
is_linear=0
shrinkage=0.05


Tree=20
num_leaves=31
num_cat=0
split_feature=7 7 7 7 7 7 7 7 7 7 7 7 7 7 7 7 7 7 6 9 2 6 7 0 6 6 4 6 6 1
split_gain=11890.2 13695.7 990.058 571.048 343.129 132.879 87.9849 65.4135 58.1699 42.2287 34.2447 12.4206 10.3271 8.4815 7.78748 7.1639 5.62802 5.54784 5.24851 5.13407 5.10703 5.22213 5.09963 5.08651 5.24994 7.14536 6.02024 5.47729 5.07388 5.04172
threshold=-0.10556134799999999 0.91598195000000004 0.042386301000000008 0.77507942500000004 1.0216588500000003 0.11988269000000001 -0.15487722999999998 -0.035110087999999991 0.84553068000000009 0.73280865000000006 0.97938808500000019 0.16919857000000002 0.014205795500000002 -0.070335717999999978 0.87371119500000016 0.93711733000000008 -0.12669673499999998 0.09874730800000002 1.5163709000000003 -0.61409607049999981 -0.62846359999999979 -0.13621926499999998 -0.16896748999999997 1.0000000180025095e-35 0.96452383000000008 -1.4464871999999998 0.10332394300000002 -0.78840214999999991 -0.0063728911999999987 0.58576446500000012
decision_type=2 2 2 2 2 2 2 2 2 2 2 2 2 2 2 2 2 2 2 2 2 2 2 2 2 2 2 2 2 2
left_child=6 2 7 5 10 17 22 13 -5 11 15 -7 -9 19 -10 -3 -8 -4 -16 23 -17 -22 -1 -2 25 -25 -26 -27 -23 -30
right_child=1 4 3 8 -6 9 16 12 14 -11 -12 -13 -14 -15 18 20 -18 -19 -20 -21 21 28 -24 24 26 27 -28 -29 29 -31
leaf_value=-0.044857475743314376 -0.012847121557580901 0.012148607779490833 0.055451398584689948 0.052383580096659998 -0.044925767804084277 0.075520006095665657 -0.023133625706251132 0.029421777070672086 0.036892352151241967 0.065858379015756072 -0.020542635679504675 0.084287233287884955 0.043024925259138758 0.016470558096397279 0.023135959175123195 0.0087104438373521061 -0.0091686788441802686 0.066066347561701572 0.050533844978742283 -0.0016421533971083915 -0.014805674885326213 0.044616883290716947 -0.032279422899715554 0.062643910388531829 0.073794310111420708 -0.019599590778353996 0.01159018448984467 0.016938812856577046 -0.0098198441148374602 0.013447022721034719
leaf_weight=8740.6616700738668 14.978404596447943 133.19287851452827 463.13981339335442 603.66053292155266 3919.6486219614744 440.13990950584412 159.19781954586506 370.15129587054253 226.78538283705711 359.2247454226017 260.31142300367355 4917.2322426736355 223.92604500055313 253.75886377692223 297.2008772790432 80.554895639419556 131.94103612005711 167.64858308434486 18.572375178337097 164.93429143726826 93.789119988679886 6.3733913004398337 81.334433823823929 6.1190944314002982 8.3394596278667432 15.107041016221041 7.2898102402687064 31.945642203092579 64.22417388856411 36.524434790015221
leaf_count=41658 61 503 1502 1971 18770 1338 695 1312 774 1118 1134 14834 758 944 1078 317 540 523 63 654 377 26 393 23 31 60 29 126 260 145
internal_value=0 0.0304232 0.0676923 0.0741857 -0.0392556 0.0800511 -0.043849 0.0233181 0.041705 0.0824542 -0.0063284 0.083567 0.0345492 0.0100394 0.0298239 0.0025949 -0.0168049 0.0582726 0.0247474 0.00347778 -0.00192602 -0.00619068 -0.0447415 0.0135572 0.0193056 0.0118174 0.044781 0.00520755 0.00135205 -0.0013849
internal_weight=0 13184.8 8590.15 7493.6 4594.62 6347.39 9113.13 1096.55 1146.22 5716.6 674.97 5357.37 594.077 502.473 542.559 414.659 291.139 630.788 315.773 248.714 281.466 200.911 8822 83.7795 68.801 53.1718 15.6293 47.0527 107.122 100.749
internal_count=92017 48731 27199 23201 21532 19315 43286 3998 3886 17290 2762 16172 2070 1928 1915 1628 1235 2025 1141 984 1125 808 42051 330 269 209 60 186 431 405
is_linear=0
shrinkage=0.05


Tree=21
num_leaves=31
num_cat=0
split_feature=7 7 7 7 7 7 7 7 7 7 6 10 12 4 1 10 4 4 6 10 9 6 13 4 5 9 1 12 4 12
split_gain=29352.3 678.699 445.933 52.6698 36.038 28.3344 10.8043 6.81137 6.00007 5.63552 5.29513 6.30495 8.13905 5.27916 9.49354 4.43142 5.2889 4.33299 4.23111 8.83371 4.93126 8.77412 6.17249 4.9299 4.19921 8.47975 6.98217 4.16645 5.27564 4.59119
threshold=-0.81711909499999991 -0.95802161499999994 -0.7184873249999999 -0.88757034999999995 -0.76075809999999988 -1.0284728499999998 -0.69030681499999991 -0.85938983499999988 -0.98620212499999982 -0.92984109999999986 -0.57002419999999987 -0.87206223499999991 2.3294651000000006 0.99028075000000015 1.1696598150000002 0.16601805000000003 0.83529995000000012 -1.2279733999999998 1.2655313500000001 -0.80509886499999983 1.0000000180025095e-35 0.40972571000000008 1.2413191500000003 -0.23921141499999998 1.0000000180025095e-35 1.0000000180025095e-35 1.0000000180025095e-35 -0.83310249999999986 0.41753752000000005 0.97327569000000014
decision_type=2 2 2 2 2 2 2 2 2 2 2 2 2 2 2 2 2 2 2 2 2 2 2 2 2 2 2 2 2 2
left_child=1 5 4 9 10 -1 -4 27 -7 -3 24 13 17 14 -12 16 18 -13 20 -20 -9 22 -22 -23 25 -2 -27 28 -5 -29
right_child=2 3 6 7 -6 8 -8 15 -10 -11 11 12 -14 -15 -16 -17 -18 -19 19 -21 21 23 -24 -25 -26 26 -28 29 -30 -31
leaf_value=0.084536011998684657 0.019440709551958393 0.05798482061807593 -0.032136978982941058 0.0018858994259477763 -0.016349694466380207 0.07723326831059095 -0.044797264469611194 0.044831950773575442 0.067123336193966945 0.048092958826202702 0.024279826116492501 -0.0142375353711861 0.044958701865231682 -0.0081775959725518751 0.089085128029421937 0.017249262757588004 0.015194167160306998 0.008064478814033391 0.059930278745959978 -0.00083787248164456703 0.0095483034452193902 0.09846912325350092 0.064101745156044831 0.034997180257991999 -0.010632107178159159 -0.049834963456461538 0.0058440512051955822 0.043181301215902052 0.048123957323697397 0.02206605501111503
leaf_weight=6116.5121324956417 47.580424904823303 243.2761364877224 170.65057450532913 16.855319410562519 277.12084871530533 376.73673987388611 13494.6128000319 88.405840516090393 240.40775081515312 352.7825870513916 30.424602568149567 24.987560480833054 13.784460037946699 8.1139253377914411 6.9404493868350974 99.576960802078247 48.006636619567871 169.61469309031963 8.3755714893341082 20.912785083055496 41.271349370479584 5.5919975340366364 5.9301079511642447 6.7544371485710126 59.808388963341713 9.6842827498912829 13.451029673218725 165.72431027889252 9.7302956879138929 30.478364139795303
leaf_count=18430 191 773 778 51 1188 1146 64363 312 757 1172 116 99 50 29 24 356 171 665 30 71 144 20 21 24 230 39 52 575 34 106
internal_value=0 0.0774573 -0.0426983 0.0418455 -0.00260506 0.0835058 -0.0446392 0.0306509 0.073295 0.0521302 0.00730396 0.0115119 0.00783075 0.0283789 0.0363172 0.0260328 0.0299157 0.00520083 0.0339031 0.01654 0.0373403 0.026218 0.0164021 0.0637452 -0.000880292 0.00736738 -0.0174628 0.0373843 0.018809 0.0399012
internal_weight=0 7877.33 14326.8 1143.67 661.511 6733.66 13665.3 547.614 617.144 596.059 384.39 253.866 208.387 45.479 37.3651 324.826 225.249 194.602 177.242 29.2884 147.954 59.5479 47.2015 12.3464 130.524 70.7157 23.1353 222.788 26.5856 196.203
internal_count=92017 24193 67824 3860 2683 20333 65141 1915 1903 1945 1495 983 814 169 140 1149 793 764 622 101 521 209 165 44 512 282 91 766 85 681
is_linear=0
shrinkage=0.05


Tree=22
num_leaves=31
num_cat=0
split_feature=7 7 7 7 7 7 7 7 7 7 7 7 7 7 7 7 6 4 4 2 12 2 4 12 7 7 6 10 6 4
split_gain=11758.9 13565.9 863.612 783.368 235.18 110.413 96.2793 87.4978 84.041 29.3021 23.8576 12.8944 9.55545 7.74128 7.6423 7.61929 6.62539 6.46233 8.41392 6.23632 5.90101 5.75736 5.57197 5.51756 5.40688 5.40387 5.31734 5.29419 5.35959 5.25604
threshold=0.09874730800000002 -0.92984109999999986 -0.056245467499999993 -0.76075809999999988 -1.0002923499999998 -0.12669673499999998 0.14806319000000004 -0.81711909499999991 0.028296047000000001 -0.7184873249999999 -0.87348011499999989 -0.95802161499999994 -1.0284728499999998 -0.16896748999999997 -0.006929583799999999 0.16919857000000002 -1.3136897999999999 0.49725339000000007 -0.18549245999999997 0.29373121000000008 -0.83310249999999986 0.39823675000000008 1.5666968500000003 0.97327569000000014 -0.98620212499999982 0.056476553000000006 0.38021515500000008 -0.13503314499999997 1.5635877000000002 -0.46980687999999998
decision_type=2 2 2 2 2 2 2 2 2 2 2 2 2 2 2 2 2 2 2 2 2 2 2 2 2 2 2 2 2 2
left_child=1 4 3 7 12 9 -2 10 14 -5 16 24 -1 -11 27 20 -3 18 -12 22 29 -7 -19 -20 -6 -10 -25 28 -4 -8
right_child=6 2 8 5 11 21 15 -9 25 13 17 -13 -14 -15 -16 -17 -18 19 23 -21 -22 -23 -24 26 -26 -27 -28 -29 -30 -31
leaf_value=-0.044717430246548021 -0.015880960852524675 0.0037005976717249082 0.039080564053200317 0.068860143783194647 -0.024299677385643793 0.063145607251635927 0.031568273380580492 0.055405588119086351 0.016636546395785112 0.083662163093236999 0.03831620469560517 0.0029932231700864152 -0.032650664654101422 0.076038410981463508 0.031164563635960187 -0.044676073644671618 0.022382292892620739 0.058448595502305405 0.015910722872357324 0.032718793025103089 -0.036444458735339483 0.052832402606917406 0.0247062635633888 0.074793516780863545 -0.008984948331902165 0.0059782256346065966 0.013088478830086439 0.049272051038862216 0.0029412948664345397 -0.027107631694685844
leaf_weight=3867.7503561973572 304.02757267653942 54.505870431661606 230.42773640155792 385.13997542858124 84.400458127260208 389.00785759091377 6.3018620014190665 463.18534454703331 203.98378247022629 4919.0469005703926 193.3443720638752 198.62822671234608 171.32995402812958 357.15428099036217 265.08841291069984 8709.3525927960873 367.08785954117775 77.250521898269653 88.145647794008255 63.449139535427094 112.16195528209209 207.51182991266251 14.53722447156906 8.4486852288246137 181.71881484985352 285.19152066111565 5.9502261877059928 156.87400943040848 10.73723781108856 9.6778594106435758
leaf_count=18430 1293 204 774 1188 377 1239 20 1495 761 14782 658 773 769 1088 934 41370 1343 263 303 217 505 661 49 29 757 1110 21 524 37 43
internal_value=0 0.0301725 0.0664781 0.0725985 -0.0403299 0.0800184 -0.0435463 0.0378409 0.0261444 0.0821742 0.0285186 -0.00664683 -0.0442056 0.0831461 0.0377419 -0.044498 0.019967 0.0365104 0.0321758 0.0447724 -0.0323945 0.0595579 0.0531045 0.0205983 -0.0138421 0.0104227 0.0492944 0.0421223 0.0374716 -0.00396784
internal_weight=0 13249.9 8746.07 7593.77 4503.83 6257.86 9141.52 1335.9 1152.3 5661.34 872.72 464.747 4039.08 5276.2 663.127 8837.49 421.594 451.126 295.889 155.237 128.142 596.52 91.7877 102.545 266.119 489.175 14.3989 398.039 241.165 15.9797
internal_count=92017 48786 27680 23540 21106 18958 43231 4582 4140 17058 3087 1907 19199 15870 2269 41938 1547 1540 1011 529 568 1900 312 353 1134 1871 50 1335 811 63
is_linear=0
shrinkage=0.05


Tree=23
num_leaves=31
num_cat=0
split_feature=7 7 7 7 7 7 7 7 7 2 2 13 9 4 14 6 6 4 11 4 6 13 10 1 10 4 10 6 14 4
split_gain=29291.4 599.16 568.361 62.6541 25.0222 21.4124 15.0425 7.31439 6.80531 4.42142 8.28178 7.61348 5.47852 4.94712 6.70892 4.33953 8.0214 7.50446 5.32457 4.23076 4.28236 9.37561 4.60839 4.70298 4.21253 4.15282 4.15092 7.4765 6.4655 4.80388
threshold=0.83144045000000011 0.97938808500000019 0.73280865000000006 0.90189171500000009 0.77507942500000004 1.0357491500000002 0.69053789500000018 0.87371119500000016 0.93711733000000008 0.50395520000000016 1.6464338500000002 -0.30881080534999999 -0.61409607049999981 0.59045420000000004 -0.79573691999999985 0.80516695000000016 1.1032234000000003 0.80986297500000004 0.58623543000000011 1.2634017000000002 -1.5645293499999997 -1.0000000180025095e-35 0.10338666250000002 -1.1659215249999997 2.2829196500000006 -1.4210427499999998 -0.87603691999999989 1.2891397500000001 1.0000000180025095e-35 -0.54355127999999986
decision_type=2 2 2 2 2 2 2 2 2 2 2 2 2 2 2 2 2 2 2 2 2 2 2 2 2 2 2 2 2 2
left_child=2 3 6 7 19 -3 -1 24 9 15 11 12 -11 14 -13 -5 -17 18 -18 20 21 -4 -22 -24 26 -6 27 -2 29 -28
right_child=1 5 4 8 25 -7 -8 -9 -10 10 -12 13 -14 -15 -16 16 17 -19 -20 -21 22 -23 23 -25 -26 -27 28 -29 -30 -31
leaf_value=-0.044773970152995481 0.024050875554736298 0.074171998976679393 -0.014312417744340035 0.058958607366020946 -0.0063049386219853612 0.084857744965210424 -0.032236593063191779 0.039799257852185126 0.060696087178747693 0.027254926816696015 0.077615852130387186 -0.014906911182147979 0.072341702102455205 -0.0098609527846519399 0.044480478511094053 0.013097415004703001 0.069894604825841825 0.10383719741138878 0.023754106187325954 -0.026189422726106745 -0.0037805802246559032 0.075904760233479862 0.0079843968461902233 -0.024901663927904695 -0.004397664290734616 0.011448422879275309 0.010546433776187202 -0.029955710316508913 0.041013620470233492 0.030505110857090165
leaf_weight=13452.908079206944 44.380743265151978 507.9310804605484 7.1963127255439758 132.81837663054466 36.082824990153313 6086.6160908341408 243.57889273762703 232.72707897424698 355.95435693860054 11.91715329885483 12.264643698930739 6.2891846597194663 15.501859873533247 11.149245291948317 19.502401858568195 16.446377545595169 11.051045954227453 6.5400006473064414 14.400003403425215 33.965470835566521 148.10591667890549 4.8010570108890516 13.228024721145628 61.025730699300766 9.6315640509128553 378.17210775613785 41.419296443462372 7.489823266863822 109.30565032362938 110.79590936005116
leaf_count=64345 153 1559 30 441 139 18345 1136 791 1125 40 41 18 52 37 65 53 37 22 47 139 620 18 56 255 37 1453 152 28 384 399
internal_value=0 0.0781852 -0.0423318 0.0452036 0.00219743 0.0840347 -0.044551 0.0330413 0.056215 0.0500298 0.0399604 0.0327846 0.0527456 0.0179688 0.0299991 0.0542866 0.0414755 0.0560645 0.0437887 -0.00969751 -0.00730733 0.0217903 -0.00887729 -0.0190431 0.0281725 0.00990205 0.0291735 0.0162526 0.0317362 0.0250742
internal_weight=0 7764.13 14379.1 1169.58 682.577 6594.55 13696.5 555.75 613.835 257.88 76.6245 64.3598 27.419 36.9408 25.7916 181.256 48.4374 31.9911 25.451 268.323 234.357 11.9974 222.36 74.2538 323.023 414.255 313.391 51.8706 261.521 152.215
internal_count=92017 23826 68191 3922 2710 19904 65481 1944 1978 853 253 212 92 120 83 600 159 106 84 1118 979 48 931 311 1153 1592 1116 181 935 551
is_linear=0
shrinkage=0.05


Tree=24
num_leaves=31
num_cat=0
split_feature=7 7 7 7 7 7 7 7 7 7 7 7 7 7 7 7 7 7 12 1 0 7 1 7 7 6 13 4 10 6
split_gain=10880.7 12049 846.74 495.92 336.131 118.705 87.6862 55.9277 49.2424 38.9409 31.2681 12.0069 8.7435 7.38807 6.50274 6.33353 5.17272 5.15336 5.09153 5.02826 8.58523 4.89623 4.87918 4.86136 4.85207 4.83484 5.6407 6.01264 7.27572 5.97797
threshold=-0.10556134799999999 0.91598195000000004 0.042386301000000008 0.77507942500000004 1.0216588500000003 0.11988269000000001 -0.15487722999999998 -0.035110087999999991 0.84553068000000009 0.71871841500000011 0.97938808500000019 0.16919857000000002 0.014205795500000002 -0.070335717999999978 0.87371119500000016 0.93711733000000008 -0.12669673499999998 -0.16896748999999997 -0.48209483499999994 1.0000000180025095e-35 -1.5850370499999997 0.084657055000000023 1.1696598150000002 1.0357491500000002 0.74689893000000007 -0.6438005349999999 -0.86204576999999993 -1.2720469999999997 -0.28229160999999997 1.4573498000000003
decision_type=2 2 2 2 2 2 2 2 2 2 2 2 2 2 2 2 2 2 2 2 2 2 2 2 2 2 2 2 2 2
left_child=6 2 7 5 10 21 17 13 -5 11 15 -7 25 -2 -10 19 -8 -1 -12 -3 -21 -4 -23 -6 -11 -9 29 28 -28 -27
right_child=1 4 3 8 23 9 16 12 14 24 18 -13 -14 -15 -16 -17 -18 -19 -20 20 -22 22 -24 -25 -26 26 27 -29 -30 -31
leaf_value=-0.044201419867241909 0.0036215024124745896 0.0017049687078451261 0.049991720760391059 0.048566946946865745 -0.032646644485066788 0.069950753632905566 -0.022102572193476725 0.019175917725923659 0.034386742078755417 0.067869599999378083 -0.010971418592518878 0.078500812601755912 0.040045823883713638 0.015732563827952257 0.023374248318361976 -0.0015731561804633552 -0.0086053084935650802 -0.03134654110529269 -0.025378924363490436 0.063191193267714052 0.013667160724895459 0.061655768543243977 0.044204591912427621 -0.044540666380500471 0.057865492369810659 0.048178415875711263 0.080071474385305527 0.023627201507448917 0.023421253575781519 -0.0017772003046478829
leaf_weight=8370.6627396196127 248.1678372323513 65.213895857334137 355.33264398574829 616.61183100938797 87.973657250404358 448.41799771785736 155.32416716217995 116.45028784871101 230.89297199249268 248.03575307130814 102.84725074470043 4870.2691386044025 228.30421486496925 255.63670629262924 319.59870231151581 280.01771228015423 130.73103764653206 78.697008401155472 151.87393702566624 10.294127792119978 58.379427641630173 240.98514479398727 48.037266343832016 3661.103261500597 237.02286207675934 63.955323606729507 11.072307407855989 165.8866563141346 11.61161422729492 6.6072887778282157
leaf_count=41658 984 244 1126 1971 425 1338 695 414 774 754 458 14475 758 944 1141 1125 540 393 676 37 222 750 149 18345 723 221 38 575 41 23
internal_value=0 0.0288403 0.0629129 0.0688542 -0.0384371 0.0742827 -0.04316 0.0220673 0.0388629 0.0765431 -0.0057786 0.07778 0.0323291 0.00976681 0.0279932 0.00270365 -0.0159341 -0.0440817 -0.0195617 0.0116483 0.0210908 0.0539226 0.0587553 -0.0442616 0.0629811 0.0276384 0.0314413 0.0269288 0.0510729 0.0435007
internal_weight=0 13140.6 8722.9 7615.2 4417.7 6448.1 8735.41 1107.69 1167.1 5803.75 668.626 5318.69 603.888 503.805 550.492 413.905 286.055 8449.36 254.721 133.887 68.6736 644.355 289.022 3749.08 485.059 375.583 259.133 188.571 22.6839 70.5626
internal_count=92017 48731 27199 23201 21532 19315 43286 3998 3886 17290 2762 15813 2070 1928 1915 1628 1235 42051 1134 503 259 2025 899 18770 1477 1312 898 654 79 244
is_linear=0
shrinkage=0.05


Tree=25
num_leaves=31
num_cat=0
split_feature=7 7 7 7 7 7 7 7 13 7 6 10 12 4 1 6 6 10 17 2 5 11 10 2 11 6 12 1 4 6
split_gain=26240.1 592.339 436.732 44.9453 32.7666 25.9427 11.0959 5.81546 5.39265 5.33169 4.87709 5.7356 7.37141 4.78449 8.36731 4.5983 8.02418 4.61503 5.14711 4.53749 6.45777 6.60989 4.16193 6.41828 4.47313 4.14868 4.14355 7.03196 4.88366 6.08998
threshold=-0.81711909499999991 -0.95802161499999994 -0.7184873249999999 -0.88757034999999995 -0.76075809999999988 -1.0284728499999998 -0.69030681499999991 -0.85938983499999988 1.0000000180025095e-35 -0.98620212499999982 -0.57002419999999987 -0.87206223499999991 2.3294651000000006 0.99028075000000015 1.1696598150000002 0.25036879000000006 0.90550275000000013 -0.86834364999999991 1.5000000000000002 -0.35949602499999994 1.0000000180025095e-35 -1.0000000180025095e-35 -0.60056562499999988 -1.2563615999999997 -1.2841102999999998 1.5990004000000002 1.0000000180025095e-35 1.0000000180025095e-35 -0.34167689499999992 0.32414515500000002
decision_type=2 2 2 2 2 2 2 2 2 2 2 2 2 2 2 2 2 2 2 2 2 2 2 2 2 2 2 2 2 2
left_child=1 5 4 8 10 -1 -4 -5 22 -7 -2 13 25 14 -12 17 19 18 -10 -17 21 -21 23 -3 -25 -13 -6 -28 -29 -30
right_child=2 3 6 7 26 9 -8 -9 15 -11 11 12 -14 -15 -16 16 -18 -19 -20 20 -22 -23 -24 24 -26 -27 27 28 29 -31
leaf_value=0.078512590058726572 -0.00068684235835405531 0.016817948039663588 -0.031092453990441998 0.034839226180493219 -0.020078372273167899 0.071538322550773345 -0.044143637125539037 0.024435396646706978 0.056354540050524086 0.062100589290072776 0.023319258039910765 0.0035189501802702174 0.042715202091358623 -0.0077514560450444164 0.083389960077932368 0.050927368662090522 0.057879422078578893 0.063726882205629887 0.010741690969639507 0.070720034970971013 -0.0095536826797666674 0.0071652160363340966 0.040345991764505269 0.025517029975829681 0.058642196727240449 0.037448309384717188 -0.020444195388140771 0.02545740196199317 -0.030082179945961515 0.016426882197828691
leaf_weight=6204.9819133877754 130.17177358269691 11.949490725994108 164.93282812833786 226.90100383758545 174.99192148447037 383.44537633657455 12927.345082759857 329.19044935703278 18.569073617458344 245.43256574869156 30.702238291501999 185.20440931618214 14.013895243406294 8.0665442049503309 7.1462670862674704 16.344124674797058 59.681033551692963 121.72648859024048 9.2736425399780291 8.05760154128075 12.247666180133818 8.3105980753898621 228.89426437020302 11.31940710544586 102.27342975139618 9.4701532125473005 49.433813914656639 19.799411937594414 14.151902109384539 14.00293508172035
leaf_count=18430 512 39 778 766 759 1146 64363 1149 60 757 116 729 50 29 24 53 189 389 30 26 38 27 732 37 325 35 218 88 61 62
internal_value=0 0.0719145 -0.0419828 0.0389561 -0.00220789 0.0775318 -0.0439792 0.0286805 0.0483444 0.0678551 0.0071858 0.0112109 0.00769076 0.0272101 0.0346614 0.0539017 0.0458619 0.0595264 0.0411622 0.0299096 0.0179051 0.0384515 0.0443586 0.0516745 0.0553413 0.00516948 -0.0154778 -0.00721124 0.00643001 -0.00695069
internal_weight=0 7998.6 13749.4 1164.74 657.155 6833.86 13092.3 556.091 608.647 628.878 384.775 254.604 208.688 45.915 37.8485 254.21 104.641 149.569 27.8427 44.96 28.6159 16.3682 354.437 125.542 113.593 194.675 272.38 97.3881 47.9542 28.1548
internal_count=92017 24193 67824 3860 2683 20333 65141 1915 1945 1903 1495 983 814 169 140 812 333 479 90 144 91 53 1133 401 362 764 1188 429 211 123
is_linear=0
shrinkage=0.05


Tree=26
num_leaves=31
num_cat=0
split_feature=7 7 7 7 7 7 7 7 7 7 7 7 7 7 7 7 7 12 1 2 5 10 2 4 4 3 2 6 2 4
split_gain=10753 11943.4 741.05 678.35 230.825 98.5798 96.0886 74.7125 71.7249 27.1342 12.6256 11.8849 9.77674 9.70751 7.72011 7.41186 6.46204 5.78197 5.229 6.2661 5.98251 7.42621 5.83286 5.6598 11.8426 5.59079 5.48546 5.35856 5.15432 4.92229
threshold=0.09874730800000002 -0.92984109999999986 -0.056245467499999993 -0.76075809999999988 -1.0002923499999998 -0.12669673499999998 0.14806319000000004 -0.84529959999999982 0.028296047000000001 -0.70439707999999979 -0.81711909499999991 -0.98620212499999982 -0.88757034999999995 -1.0284728499999998 0.16919857000000002 -0.15487722999999998 -0.006929583799999999 -0.83310249999999986 1.1696598150000002 0.29373121000000008 1.0000000180025095e-35 -0.60056562499999988 0.8402016000000001 -0.18549245999999997 0.32854761000000005 1.0000000180025095e-35 -0.40119276999999992 0.15003297000000002 0.39823675000000008 -0.46980687999999998
decision_type=2 2 2 2 2 2 2 2 2 2 2 2 2 2 2 2 2 2 2 2 2 2 2 2 2 2 2 2 2 2
left_child=1 4 3 7 13 9 -2 12 16 -5 18 -6 -3 -1 17 -11 -4 29 20 -20 23 25 26 -9 -25 -22 -23 -27 -7 -8
right_child=6 2 8 5 11 28 14 10 -10 15 -12 -13 -14 -15 -16 -17 -18 -19 19 -21 21 22 -24 24 -26 27 -28 -29 -30 -31
leaf_value=-0.044036706287472444 -0.014964648276258092 0.016877079920683026 0.039200333439725482 0.065418547810887337 -0.023270567075009248 0.058496826735748367 0.030877582391682975 0.063616224860095424 0.010096062207339282 0.077784433959910096 0.051305808489662333 -0.002297568332658876 0.029113498119309557 -0.031676787945610185 -0.044004793151459887 0.068667524155232543 0.029208707715099081 -0.035561570585576907 0.038028424590533419 -0.0024970503356355313 -0.012206564519892084 0.053732665209809405 0.070093472216377864 0.011840457794399815 0.056729349686096955 0.05179586095005069 0.018260846362637941 -0.0026866299255439582 0.048840044778606428 -0.026085537980561346
leaf_weight=3700.2221380323172 298.67659851908684 318.35761943459511 405.70285946130753 521.72213745117188 82.248613268136978 397.4049314558506 6.3467702865600577 39.358460783958435 490.89977803826332 4990.3293437361717 473.10830357670784 377.93253402411938 335.02595067024231 165.98696754872799 8341.7931924313307 233.35653552412987 269.19547653198242 108.48906713724136 21.799419581890106 16.959122627973557 13.78045132756233 18.641034573316574 13.867332339286802 23.958251148462296 37.992949962615967 11.15327835083008 26.24222719669342 7.580471158027648 211.83766657114029 9.4231677204370481
leaf_count=18430 1293 1172 1335 1571 377 1239 20 134 1871 14792 1495 1530 1148 769 41370 695 934 505 74 54 43 63 45 79 128 38 83 26 661 43
internal_value=0 0.0285979 0.0617926 0.0674088 -0.0395216 0.0742633 -0.0428372 0.0353296 0.0246378 0.0762912 0.0466251 -0.00604609 0.0231514 -0.0435061 -0.0438205 0.0773772 0.035215 -0.0314494 0.0370524 0.0202962 0.0404248 0.0311398 0.0417502 0.0487893 0.0393696 0.0119676 0.0329931 0.0297499 0.0551391 -0.00316016
internal_weight=0 13204.7 8878.27 7712.48 4326.39 6354.65 8764.73 1357.82 1165.8 5745.41 704.441 460.181 653.384 3866.21 8466.05 5223.69 674.898 124.259 231.333 38.7585 192.574 91.2648 58.7506 101.31 61.9512 32.5142 44.8833 18.7337 609.243 15.7699
internal_count=92017 48786 27680 23540 21106 18958 43231 4582 4140 17058 2262 1907 2320 19199 41938 15487 2269 568 767 128 639 298 191 341 207 107 146 64 1900 63
is_linear=0
shrinkage=0.05


Tree=27
num_leaves=31
num_cat=0
split_feature=7 7 7 7 7 7 7 7 7 7 4 4 4 10 1 2 5 10 6 6 2 2 13 9 4 14 2 6 1 2
split_gain=26175.9 553.527 523.08 52.7674 22.3671 19.9608 15.4347 6.00688 5.70181 4.23623 4.05638 4.22044 4.04468 4.03375 7.41284 5.3843 3.98854 3.988 10.1441 5.78013 3.91028 7.30237 6.79495 4.81956 4.49846 6.04637 3.90579 9.02964 8.01194 10.9778
threshold=0.83144045000000011 0.73280865000000006 0.97938808500000019 0.90189171500000009 0.77507942500000004 1.0216588500000003 0.71871841500000011 0.87371119500000016 0.93711733000000008 0.69053789500000018 0.43725902000000005 0.21625596000000002 1.2634017000000002 0.20612097500000001 -1.1659215249999997 -0.18370761499999996 1.9980654 -0.84823375999999995 0.25036879000000006 1.5045667000000003 0.50395520000000016 1.6464338500000002 -0.30881080534999999 -0.61409607049999981 0.59045420000000004 -0.79573691999999985 0.50395520000000016 -1.4464871999999998 1.0000000180025095e-35 0.82663120000000012
decision_type=2 2 2 2 2 2 2 2 2 2 2 2 2 2 2 2 2 2 2 2 2 2 2 2 2 2 2 2 2 2
left_child=1 6 3 7 12 -4 9 -2 20 -1 11 -8 13 -3 15 -15 26 18 -9 -19 -5 22 23 -22 25 -24 27 -6 -28 -30
right_child=2 4 5 8 16 -7 10 17 -10 -11 -12 -13 -14 14 -16 -17 -18 19 -20 -21 21 -23 24 -25 -26 -27 28 -29 29 -31
leaf_value=-0.044124876856368192 0.026578475672779451 -0.0022954580395026978 0.066819198239834079 0.050393256295386872 0.041931857313463404 0.078681884084789822 -0.019195351214364734 0.0053768978368034636 0.056098886120343451 -0.035891925745699001 -0.037441594189152029 0.02200086355328261 -0.025314379610192977 -0.012252472771924464 -0.02419370869591109 0.052890828428216623 -0.013408216585908798 0.04242455066095939 0.052121678283169243 0.0042149359720645421 0.025145466753335666 0.07187674241092884 -0.014998396934853482 0.067011271421196214 -0.010159355969785379 0.041211633811890032 -0.0095696607662532907 0.010974908638888283 -0.017702007121898872 0.030270297401903241
leaf_weight=12887.252956539392 327.2875359505415 161.10248230397701 375.6993116736412 185.27387383580208 25.978227019309998 6317.4689539670944 43.336363509297371 28.823092490434647 363.76117825508118 158.16359657049179 26.471473276615143 7.258307233452796 33.251147270202637 6.8535574078559875 58.073192670941353 5.904888913035391 18.052810415625572 178.44016796350479 19.429853647947311 10.478902846574782 12.090200513601305 12.618636190891264 6.2961586713790885 15.934326350688933 11.18590462207794 19.922161757946018 61.210023373365402 252.58942767977715 16.790520370006561 41.15774792432785
leaf_count=64345 1153 678 1134 600 90 18770 203 97 1125 777 124 32 139 29 247 25 74 590 66 38 40 41 18 52 37 65 237 971 64 156
internal_value=0 -0.0416124 0.0725823 0.0420596 0.00234091 0.078016 -0.0438933 0.0309693 0.0520424 -0.0440251 -0.0215828 -0.0132853 -0.00900578 -0.00666771 -0.0166121 0.0178973 0.00957788 0.0370284 0.0241995 0.0403052 0.0464387 0.037051 0.0303344 0.0489497 0.0163872 0.0277132 0.0106212 0.0138618 0.0030453 0.0163703
internal_weight=0 13803.4 7884.71 1191.54 680.964 6693.17 13122.5 564.46 627.082 13045.4 77.0661 50.5947 265.185 231.934 70.8316 12.7584 415.779 237.172 48.2529 188.919 263.321 78.0474 65.4288 28.0245 37.4042 26.2183 397.726 278.568 119.158 57.9483
internal_count=92017 68191 23826 3922 2710 19904 65481 1944 1978 65122 359 235 1118 979 301 54 1592 791 163 628 853 253 212 92 120 83 1518 1061 457 220
is_linear=0
shrinkage=0.05


Tree=28
num_leaves=31
num_cat=0
split_feature=7 7 7 7 7 7 7 7 7 7 7 7 7 7 9 4 10 2 1 2 6 7 3 3 4 7 10 7 13 17
split_gain=9968.52 10659.5 705.337 560.574 215.343 104.458 87.5125 54.1368 49.671 47.7306 15.9285 10.8463 8.96135 7.35401 6.71959 6.70038 9.22806 7.57257 6.0826 8.1201 8.46918 5.74135 5.61383 5.60417 9.84209 5.59737 5.97546 5.27285 5.24066 5.43281
threshold=-0.10556134799999999 0.93711733000000008 0.042386301000000008 0.78916967000000016 1.0216588500000003 0.11988269000000001 -0.15487722999999998 0.73280865000000006 0.85962092500000009 -0.035110087999999991 0.97938808500000019 0.16919857000000002 0.90189171500000009 0.014205795500000002 -0.61409607049999981 0.77481975000000014 -0.87991734999999982 1.2450824500000002 -1.1659215249999997 0.16891128500000005 -1.0333396999999998 0.83144045000000011 1.6247503500000002 1.0000000180025095e-35 0.52772310500000008 -0.070335717999999978 1.1561179500000003 -0.16896748999999997 -0.86204576999999993 1.5000000000000002
decision_type=2 2 2 2 2 2 2 2 2 2 2 2 2 2 2 2 2 2 2 2 2 2 2 2 2 2 2 2 2 2
left_child=6 2 9 5 10 -4 27 11 18 14 -3 -7 15 -11 28 16 -10 -17 19 20 -5 -20 -23 24 -18 -16 -27 -1 29 -2
right_child=1 4 3 8 -6 7 -8 -9 12 13 -12 -13 -14 -15 25 17 23 -19 21 -21 -22 22 -24 -25 -26 26 -28 -29 -30 -31
